1427 12
data -0.51248616 0.84259993 0.28756174 0.41294953 -0.87953532 0.15893508 0.074736193 -0.31808531 0.28045049 -0.086431496 0.24001944 0.54697889
visualization -0.39705139 0.73433757 -0.022373896 0.39411736 -0.71649647 0.64617723 0.050113261 -0.32783335 -0.22349815 0.13962738 0.20806162 0.10848401
visual -0.22287425 0.92085296 -0.23957209 0.7762264 -0.74329191 0.10724135 -0.6270954 -0.37116316 0.23262177 0.35338178 0.091480844 -0.11034063
We 0.075785153 0.67444223 -0.08113654 0.33687556 -0.89445335 0.83035725 -0.40634993 -0.002367381 -0.090268277 -0.47358355 0.68120122 -0.3267701
In -0.16529641 0.58332503 -0.22080781 0.50706691 -1.1371708 0.3168444 -0.16817881 -0.17860314 -0.14233221 0.6952545 -0.2788187 -0.14188729
based 0.15719494 0.77725703 -0.14217824 0.50884223 -0.724159 0.51660329 -0.29668051 0.019798173 -0.37865755 0.68640161 0.31807736 0.026906528
analysis -0.36905807 0.79350114 0.073420167 0.12203652 -0.73642343 0.67261589 -0.030610671 -0.26535383 -0.1342752 0.21263112 0.22508657 0.59810263
The -0.39788747 0.50465369 0.057691623 0.44643298 -0.68065184 0.97103077 0.21280533 -0.034039479 -0.42925027 -0.34356508 -0.098114148 -0.21390773
topics 0.71485102 0.81080109 -0.4472008 0.34313199 -0.60269779 1.4043385 -0.21354966 0.77012253 -0.96836656 0.63221902 -0.54640383 0.19736028
patterns -0.60314035 0.58706391 0.025704728 0.56610006 -0.74716681 0.79173154 0.14138819 -0.12493195 -0.41832834 -0.093146645 0.058639608 0.14479399
paper -0.45585811 0.76951039 0.29309824 0.52004921 -0.88315082 0.28377452 -0.30170915 -0.30558538 0.12462524 0.49342695 -0.10516483 0.13136911
approach 0.43465239 0.52011025 -0.27524194 0.64321774 -1.0991548 0.81522071 -0.13093527 0.39355734 0.42376736 -0.075077452 0.0085973209 -0.48734438
present 0.13656737 1.0461506 0.029750293 0.4001407 -0.50585282 0.42372233 0.18968749 -0.21441944 0.013953922 -0.16632859 -0.20673332 0.63357407
information -0.22164878 0.57131487 0.32006517 0.12378817 -0.6379658 1.1935444 -0.044157721 0.17766079 -0.36100945 -0.33116746 0.34358844 -0.23861954
topic 0.26471561 0.63046765 -0.015161293 -0.020625586 -0.65132415 0.91704845 -0.093456782 0.35449591 -0.74092209 0.24235354 -0.37877062 0.79302424
demonstrate 0.11301701 0.94242752 -0.05184146 0.097417772 -1.1954058 0.67426211 -0.093521796 0.28297141 0.59788561 -0.56030691 1.3745213 -0.19963644
method 0.72507668 0.63152629 0.45361868 0.406014 -0.91254413 0.48710591 -0.56077516 -0.36726636 -0.10432404 -0.2864511 0.45124298 0.084909149
model 0.11050754 0.88271654 -0.096061058 0.14993365 -1.0942019 -0.042918228 -0.099974565 -0.010217976 -0.92333114 0.026783088 -0.5653404 0.24753429
studies 0.093423337 0.86484754 0.014423521 0.35005897 -1.248351 0.34253147 0.33020806 -0.02129172 0.51656479 -0.43834177 0.76603562 0.056968275
graph 0.58824438 1.5060916 0.17045067 0.24368615 -0.35761863 0.75403333 -0.8378728 0.47570229 0.45092893 0.54343796 0.75605392 0.18624774
urban -0.95312697 0.17787682 0.31372246 0.72360063 -1.3482192 0.15479629 0.15675862 -1.1268535 -0.40175557 0.67775911 0.20104332 0.16172485
To -0.34345874 1.1700418 -0.53853071 0.37192148 -0.77986485 0.22003847 -0.66471648 0.41551742 -0.14220394 0.22800663 -0.35106096 0.044200446
analytics -0.30127662 0.63784772 0.056209698 0.68649799 -1.0330112 -0.071241647 0.05260013 -0.34127966 -0.040241238 0.31299248 -0.41727552 0.28430551
However -0.49352092 0.63175786 -0.12516023 0.79696023 -0.66689771 0.24243747 0.21001181 -0.43004581 -0.052775934 -0.19986181 -0.29917294 0.034901679
case 0.20318124 1.0008851 -0.13463433 0.39390033 -1.097761 0.50773776 -0.16161536 -0.063194506 0.58138847 -0.30222374 1.4045639 -0.085330583
interactive -0.027191686 0.88478094 -0.10283192 0.89738429 -0.32216865 0.56615973 -0.041809604 -0.41592601 0.033057842 0.39384842 0.08686211 0.41448081
design -0.37542123 0.69859427 0.13363498 0.67251801 -0.68342996 0.53374594 0.16017783 -0.05904657 -0.075005725 -0.042971272 0.22676308 -0.14953764
social 0.23649843 1.2068095 0.60568219 -0.26962131 -1.1432717 0.1813889 0.15869927 0.95493293 -1.2832921 0.043143451 -0.42714843 -0.064542577
traffic -1.1310729 0.36213249 0.4704487 0.79376268 -0.72952431 0.95301318 0.30896711 -0.29028824 -0.22526316 -0.84849268 0.28433087 0.16469519
text 0.034576837 0.52580243 -0.83322179 0.25713697 -0.57246041 1.4412147 -0.68939501 -0.022855941 -0.22637795 0.23967469 -0.16307224 1.185141
real 0.25954023 0.87040526 0.31860656 0.2439982 -0.9177289 0.75371373 0.003241648 0.05489492 0.34144187 -0.21610601 1.2519572 0.082689308
temporal -0.40462404 0.3703227 0.24636313 0.23530094 -0.82460892 1.5207131 0.29666525 -0.092266902 -0.41240171 -1.2276345 0.34964353 -0.37112543
flow -0.32627061 0.8738988 -0.022272445 -0.041606497 -0.74892998 0.96484822 0.11545738 0.29293361 -0.53685099 0.01229578 0.51985168 -0.16406108
view -0.17649233 0.63221055 0.37772766 0.39137697 -1.0769086 0.33081439 0.56238014 -0.92418551 -0.38499025 -0.32571173 0.4489778 -0.043637373
help -0.028509077 0.8474614 -0.0020492203 0.55374306 -0.62493187 0.52121526 -0.079124562 0.082031474 -0.11424699 -0.30234322 0.1782926 0.59303212
effectiveness 0.021781839 1.0744096 0.26969126 0.052646667 -1.1127323 0.75675392 0.44714642 0.54554784 0.51414919 -0.3872014 0.97281647 0.1682277
map -0.81446689 0.95087355 0.042648852 -0.10984761 -0.58835143 1.1980965 0.14190647 -0.0094264811 -0.76811129 -0.096523285 0.20349684 -0.33858845
study 0.21509334 1.1725202 0.31300166 0.64303404 -0.40349516 0.48666504 0.43725362 0.35516533 0.4342503 -0.56052816 0.83476192 0.44531083
techniques -0.32976803 0.59062606 0.33951417 0.58246732 -0.89431918 -0.0075407131 0.26259303 -0.55476367 -0.43534738 -0.051125187 0.26071247 0.072245777
analyze -0.81663096 0.79338497 -0.2613847 0.24814555 -0.78562975 0.64964807 -0.029318387 0.23425153 0.030096523 0.2548382 0.081341535 0.048062079
changes 0.67711198 0.91060871 0.64469647 0.35258347 -1.0084188 -0.11876316 -0.52733332 -0.62255335 -0.37234238 -0.59212816 -0.12597209 0.48139748
propose -0.0043573179 0.81204271 0.13508603 0.68216318 -0.91182876 0.2074292 -0.55701584 0.073385701 0.074867487 0.39003092 -0.003205027 -0.32801503
tree 0.40175426 1.4044697 -1.0683705 0.34813339 -0.329467 2.1845839 -0.38565487 1.1779096 -1.1264889 0.88625914 0.10919333 0.54020989
multiple 0.30191764 1.1809624 -0.017434364 -0.22279748 -0.86887616 0.63046408 -0.4626084 0.57692164 -0.18303865 0.31442037 -0.18157661 0.18398428
graphs 1.1787773 1.4478176 1.3480228 1.1599195 0.052299716 0.59230906 0.29159448 0.33201206 0.45659977 -0.40954292 0.97546059 0.94443858
series 0.92685032 1.2019269 0.81331837 0.66140664 -0.68621713 0.062118959 -0.71231604 -0.44118148 0.43956032 -0.76944345 0.27174965 0.52331996
understanding -0.069842823 0.7371248 0.045336086 0.60378861 -1.0162823 0.22741131 -0.23194537 0.059580207 0.43631303 0.11707331 -0.0023586536 -0.065795682
technique -0.1340113 0.69657826 -0.16002117 -0.081480026 -0.82667083 1.1562544 0.0083120354 0.03088489 -0.2057374 -0.26626563 0.10246857 0.19042666
complex -0.24804023 0.63991469 -0.098288208 0.2118154 -0.90074313 0.50252992 0.022926491 -0.017724851 -0.32218826 0.54425353 0.19643356 0.20888124
insights -0.11671019 0.63549858 0.74263471 0.17517629 -0.88113582 0.63985986 0.13202599 -0.29916251 -0.10184957 0.16541626 0.33544675 0.64968401
understand -0.01956832 0.51431972 -0.843835 0.71364093 -1.4340503 0.55982244 -0.40951335 -0.023996023 0.77750474 0.11753178 -0.40907654 -0.39063543
explore 0.034350369 0.90779287 -0.074478813 0.63928276 -0.11489403 0.81987065 0.30610794 0.28522938 -0.75207734 0.0010663539 0.071374819 0.235102
novel -0.564264 0.53644329 0.47436973 0.59966779 -1.1350491 0.049714372 0.018519942 -0.81881529 -0.19422959 -0.086840406 0.34653333 -0.21795052
opinions -0.34383395 2.2644737 0.0064886068 -0.83853346 -0.69497144 0.1268789 0.18974741 0.84992546 -0.0098974193 0.52801681 -0.34122694 0.49241805
domain -0.16255465 0.39544439 0.47898391 0.29632899 -1.4877023 0.17981358 -0.24189961 -0.31572732 0.047426395 0.16524209 1.1688149 0.086162753
develop -0.38609716 0.62312746 -0.36899871 0.088830292 -1.057148 0.59982944 -0.50914866 0.081006907 -0.60482591 0.32679552 0.012800878 -0.083517693
stacked 1.1863987 1.8212917 1.3890347 0.92568994 0.11803517 0.86896026 0.33069906 0.47151205 0.37009856 -0.51521724 0.8552705 1.2440106
analyzing -0.38949478 1.1157082 -0.21757567 0.3016625 -0.55342889 0.25505579 -0.14496516 -0.098999858 0.068483576 0.83409178 0.036138091 0.38570425
Our 0.35236281 0.40476742 0.50320923 0.47225833 -1.1113709 -0.07482785 -0.55151314 -1.2665833 -0.70531827 -0.29133481 0.93082559 0.55169642
results -0.18948424 0.95068979 -0.54760814 0.57300913 -1.0091891 0.69679618 -0.070686467 0.53756779 0.6470803 0.32328227 0.61038017 -0.33239281
word 1.2161974 0.30169615 0.88014728 0.2812846 -1.4702805 0.38054213 -1.0039724 -1.1890619 -1.0343388 -0.1600651 -0.38074842 1.4058813
algorithm 0.54190224 1.0988249 -0.58371913 0.55771387 -0.77777475 0.78177637 -0.7907322 0.6752609 0.23378482 0.14493477 0.83599734 -0.54942918
behaviors -1.190527 0.79164326 0.13470718 1.1079539 -0.67306811 0.18609831 0.51834583 -0.02090133 -0.39978826 -0.66132903 -0.44050676 -0.051413678
movement -1.8420166 0.92673534 0.76508319 0.85749066 -1.0066679 -0.0011127084 0.021923715 -0.1388973 -0.23625748 0.10362229 -0.17127389 0.068287455
set 1.0611104 0.63950026 0.073149204 0.21710022 -1.1354406 0.46692675 -0.45625952 0.058985956 -1.3453243 0.31043404 -0.58989209 0.5463993
models -0.3115249 0.49826163 -1.1126351 1.2635874 -1.5127804 0.21265849 -0.21417695 -0.59178394 0.59221095 -0.22912614 -0.4960874 -0.86371768
trend 1.0403202 0.83284014 0.70165694 0.42346168 -0.63001174 0.46071437 -0.26084411 -0.34628463 -0.35062248 -0.23558109 -0.13143128 1.3571218
usefulness 0.58176076 1.0387074 0.40009499 0.028770497 -1.193942 0.72944897 0.50544757 0.38451514 0.26347741 -0.67705399 0.52020836 0.35235295
clustering 0.52234149 1.0848509 -0.12694827 1.1347227 -0.48373601 7.9147459e-05 -0.85249001 0.4016515 0.0055207945 0.80512804 1.0726154 -0.36184934
world 0.1495607 0.96051568 0.24655971 0.042702354 -1.0917788 0.78818244 -0.14000575 0.13722272 0.42959478 0.056072515 1.6113425 0.091889478
diffusion -0.052584071 1.6573189 0.74812043 -0.63874942 -0.88090312 0.53303015 0.14263818 1.4210973 -0.94733477 0.11960877 0.2370149 -0.054516699
spatial -0.75789249 0.053109348 0.59778261 0.30597806 -1.1268705 1.0745579 0.095388196 -0.7097891 -1.0670524 -0.78823763 0.326781 -0.15192583
interactions 0.83522236 1.2316518 -0.015960649 0.52688193 -0.57660162 0.35210672 0.60923243 0.25956962 -0.78719068 -0.84868234 -0.47866374 0.0038679682
problem -0.059864119 0.93807572 -0.68507874 1.2005711 -0.76941806 0.1747421 0.55182678 -0.20525829 0.41102877 -0.97196358 -0.51936507 -0.77806401
people -0.68097085 0.63996154 0.55365413 0.5910691 -1.0055485 0.28415892 -0.5278275 -0.64179444 0.1853057 0.74486089 -0.70237291 0.56454152
types -0.56912589 0.4204582 -0.52245861 0.97372973 -1.0901235 0.21544451 -0.74285263 -0.4196634 0.1595258 0.24913906 -0.27032977 -0.21642151
ranking 1.0003263 1.4990165 0.76525539 0.12161018 -0.8980602 -0.30080092 -0.18637569 -1.0179147 0.11879094 -0.63168484 0.10322545 0.89124107
work 0.062419061 0.31104723 -0.01187682 0.74117315 -0.88885814 0.22671546 -0.14737053 -1.2063369 -0.58342338 -0.080199145 -0.18481274 0.91369033
evolution 0.769988 0.40608326 0.23607194 0.31943241 -0.8925575 0.9649204 -0.32284111 -0.65351599 -0.68643934 -0.048258722 -0.58310318 1.3928403
process -0.32372785 0.84004158 -0.30739024 0.71222419 -1.1441994 -0.41790712 -0.66266888 0.39070269 -0.5034799 -0.17829208 -0.054801565 -0.69681609
methods -0.31790042 0.79099369 0.16967034 1.155413 -0.37019005 0.32045272 -0.062030327 -0.42038336 -0.39811942 0.93926585 0.29008421 -0.16566363
opinion -0.014083018 2.0851734 0.56171721 -0.6130749 -0.72207797 0.60971022 0.21996073 1.6830095 -0.85407591 0.35566497 0.04552203 0.039717205
related 0.70742422 0.98245519 0.03809166 0.59363151 -0.16294044 0.73203903 0.20033744 -0.10167085 -0.99200338 -0.3088201 -0.11638339 0.68792605
media 0.1948247 1.4829991 0.60791016 -0.49161947 -0.90351087 0.16977745 0.26128143 1.2130396 -1.4062908 0.27389985 -0.10609605 -0.14427981
experts -0.22321311 0.70528638 -0.45017695 0.52996123 -1.4995987 0.4366532 -0.12216928 0.0045115664 0.66169226 -0.54995227 0.93380827 -0.77385271
clusters 0.14869484 1.0870535 -0.66285044 0.95888013 -0.67519766 0.70597059 -1.2330942 -0.015378382 0.66084909 1.2407287 1.1784464 -0.62573427
cluster -0.13389578 1.2834285 -0.74488819 0.60705441 -1.0174088 0.69419515 -1.4138368 -0.099197328 0.89437616 1.0191643 1.7552943 -0.62142891
individual 0.85121685 1.0361296 0.85289448 0.92439806 -0.11426505 0.83201885 0.058052856 -0.55681813 0.24841306 -0.58314621 0.25000972 1.2074121
introduce -0.032616369 0.95138037 -0.47413337 -0.060610622 -1.100647 0.58860409 -0.29768169 0.21905001 0.38961107 0.53924769 -0.16817798 0.11308475
correlation 0.55316341 0.94963682 0.043856502 0.34054536 -0.66534251 0.49232838 -0.089359559 -0.093339413 -0.21877663 0.011686686 0.46982765 0.3323769
conducted 0.23754841 0.71379226 0.11588017 0.69758266 -1.2798619 0.58963573 0.45642474 0.24017851 0.59309757 -0.55399346 0.57673627 -0.31408909
major -0.22614345 0.80580008 0.37057051 0.38111115 -0.78552091 0.040458549 0.084394671 -0.15867519 -0.45863605 0.11607008 -0.10155135 0.32458651
For 0.15123236 0.61330467 0.070365824 0.43609914 -0.96507961 0.26963472 -0.70733821 -0.69440377 -0.075275823 0.58582997 -0.59033918 0.47142941
display 0.24117588 0.98736095 -0.091682076 0.39979592 -1.0036105 -0.055747885 -0.041205589 -0.337836 0.43316385 -0.37315318 0.77417946 -0.3803969
exploration -0.80330443 0.6273362 0.30749372 0.52626967 -0.99110723 0.21096697 0.1771086 -1.0610685 -0.53552246 -0.042753182 -0.06461145 0.48772681
illustrate 0.11360668 0.58310699 0.26712307 0.028243829 -0.80256885 0.86617452 -0.24650221 -0.11661923 -0.4625777 0.23378359 0.084465578 0.78143418
groups 0.34931585 1.0786092 0.075755142 -0.0021905983 -1.0213159 0.49225402 0.041941177 0.57210106 -0.66926932 0.1454194 -0.48817286 -0.36243162
facets 0.38216996 0.84691423 -0.67495942 0.13066848 -0.61030644 1.0542234 -0.93834484 -0.28523928 0.24859481 0.33297428 0.1012034 0.96168727
analytical -0.77337587 0.56728637 0.1785318 0.97969013 -0.96844131 0.14738326 0.18244301 -0.81850964 0.052156229 0.29074493 0.26282886 0.34472236
analysts 0.62880558 1.3440458 1.1745703 0.16075753 -0.49932733 0.45372367 0.19638936 0.288486 -0.063039266 -0.014904867 0.56040221 1.0858942
route -0.86825919 0.41220751 0.034901232 0.68043321 -0.8778609 1.4848585 0.57264012 -0.45934916 -0.38560131 -1.693908 0.25544885 -0.83582729
trajectory -0.98545933 0.65192437 0.43883589 0.8419416 -0.80922931 -0.10850699 0.6296007 -0.55228651 -0.075781137 -0.24258691 0.30196542 0.080094144
learning -0.48412129 0.42187303 -0.58830029 1.0203229 -1.3068876 0.15116364 -0.06347739 -0.68672508 -0.035248153 -0.57524085 0.37990844 -0.44113979
existing 0.047411758 0.81023073 -0.34446511 0.8426981 -0.27008903 0.55214864 0.21888934 -0.023586387 -0.52811146 0.23180819 -0.66716015 0.47868216
result -0.10959863 0.98332566 0.20568296 0.47917733 -0.39305496 0.60706013 -0.18006268 -0.11752173 0.23435947 0.38554543 0.21864481 0.83947796
edge 0.74301088 0.88398427 -0.15755406 1.3415054 -0.5849635 -0.86414605 -0.60001814 0.17988247 -0.29125425 -0.10804097 0.91461849 -0.36853996
clouds 1.1503134 0.21274078 0.72570407 0.43361297 -1.4687601 0.35801885 -0.82855457 -1.1307396 -0.91493315 -0.1360929 -0.41992074 1.3342491
content 1.1281217 0.47323453 0.35282227 0.45025495 -1.200089 0.3955934 -0.64064533 -1.1206559 -0.48361993 -0.21728417 -0.58222258 1.455169
documents 0.91548961 0.55114198 -0.5916509 0.59238791 -0.36557207 1.2333127 -0.76931626 -0.48942819 -0.6290406 0.26862103 -0.333177 1.35949
hierarchical 0.42306837 0.62347144 -0.74863046 0.38570824 -0.69961154 1.5399463 -0.41655487 0.65483123 -0.35972881 0.38914567 -0.19635722 0.048181292
layout 0.84860873 0.4787541 0.20720653 0.53191012 -1.170684 0.84411037 -0.022651879 0.8940587 -0.27964807 0.29130578 -0.19826321 -0.590487
key 0.089007884 0.63989496 0.33927882 0.16758934 -0.79004204 0.67184567 -0.07439322 0.46288151 -1.0772191 0.36916444 -0.50629866 0.73935938
scale -0.6786713 0.18241759 0.43534917 0.56837857 -1.3382523 0.19611661 0.17058156 -0.71011269 -0.29277599 0.16024625 0.1951547 -0.12155554
effective -0.72859675 0.8445273 -0.12783411 0.53121084 -0.5376848 0.3283177 0.20233782 -0.40054071 -0.28143558 0.46192616 -0.086473472 0.43647119
node -0.031935573 1.2141186 -0.48425686 0.8041392 -0.42264083 0.64990979 -1.1513432 -0.21999906 0.26368576 1.1936303 1.2331171 -0.21515241
evaluation -0.16179973 0.76372874 -0.27083459 0.074501805 -1.0369303 0.68049359 -0.68446189 -0.039313566 0.27621201 0.48931471 1.2489928 0.33394945
applications 0.0061421702 0.54816097 0.28882602 0.28085724 -0.97789758 0.21082112 -0.10664762 -0.31132805 0.062069464 0.39996344 -0.32395974 0.013713061
challenges -1.0324141 0.84341925 0.2711136 0.47364831 -0.90843755 0.077625148 0.38295001 -0.44084305 -0.12724851 0.50068009 -0.30701411 0.07827343
coopetition 1.0469376 1.5294104 0.49627411 0.073845461 -0.78001302 0.2487594 0.41952443 0.83545804 -1.8515217 -0.056700863 -0.49262294 0.11443464
mobility -1.1582444 1.0042592 0.067701794 1.2389362 -0.48867351 0.31159836 0.71395612 -0.72649193 -0.50265545 0.42411029 -0.046948962 -0.49603087
interactively 0.11123705 1.0759232 -0.0036764587 0.07414721 -0.31369311 1.1853939 -0.066967621 0.29761302 0.1370133 0.11879137 0.73044431 0.5688715
deep -0.0041677197 0.50892657 -1.2588912 1.0814571 -1.3833061 0.24387914 -1.1243092 -0.47693104 0.44835067 -0.63951516 0.016512159 -0.84733742
training -0.079706088 0.81605405 -1.1630491 1.2036747 -1.5177971 -0.045426395 -1.185779 -0.023374276 0.5912177 -1.0566798 0.46279404 -1.2727518
designed 0.15346093 0.97999161 -0.16729583 0.36464566 -0.22746867 1.1679395 -0.22037651 0.26856747 -0.30050942 0.68417042 0.36362854 0.85371232
relationships 0.36736616 0.96369618 0.43944952 -0.038173005 -0.99682224 0.2570262 0.042737253 0.45631093 -0.66391814 0.35962445 -0.55879658 0.38792887
gain 0.19799674 0.86487079 0.78411347 0.19865993 -0.65756315 0.6701923 0.075482711 0.11939215 -0.46421817 0.069345266 0.060675438 0.90564179
efficient 0.37217134 0.82732266 0.36092237 1.0747175 -0.99554145 -0.22628276 0.60752922 0.27259827 0.017371949 -0.42856199 -0.2630088 -0.59385401
customer -0.33353952 2.0977657 -0.099592716 -0.58275151 -0.55318302 0.18963093 0.12562793 0.62674338 0.32590589 0.73199856 -0.39540508 0.77025682
uncertainty 0.20077659 2.0884969 -0.30073056 -0.38344505 -0.41467133 0.71832818 -0.235559 0.37724796 0.58904308 0.93011874 0.13314778 0.87341106
developed -0.0069111795 1.0802882 -0.88634866 0.69739377 -0.46377954 0.57653958 -0.0938612 -0.13224021 0.28530356 0.56041831 -0.57713449 0.30800286
applied -0.42414454 1.0882245 0.30209348 -0.1615383 -0.77156717 0.72501999 -0.14781229 -0.31009912 0.21528049 -0.020105915 0.80974913 0.32843047
This 0.83326274 0.95881099 0.39710701 0.73659515 -0.61515558 -0.033680029 0.41649461 -0.30334887 -0.46416569 -0.49288699 -0.13376051 0.36354268
search 0.43227401 0.60817713 0.24872799 0.17595582 -0.81285173 0.70887893 -0.44588327 -0.508425 0.032893199 0.27148196 -0.22779575 0.89272898
effectively 0.001580425 0.90899014 0.051201101 0.57601207 -0.74292076 0.52379209 0.081861086 0.011655306 0.3484726 0.6362645 0.46258646 -0.095438749
public -0.13793717 1.4640856 0.58886069 -0.25869402 -0.46461099 0.28931206 0.42842662 0.88495368 -1.1211861 0.29330033 -0.024315421 0.0096155852
city -1.1866517 0.1807916 0.32131946 0.74437398 -1.1131921 0.57398576 0.10672688 -1.0828338 -0.51635098 -0.014023497 0.3178544 -0.00077854481
aggregation 1.0602326 1.1800338 1.1162237 1.0614712 -0.25114295 0.49208817 0.23504637 -0.79201633 0.23120201 -0.89962673 0.18868837 1.1698403
quality -0.32615376 0.70912898 -0.39609885 0.38692081 -1.2082564 0.39676672 -0.87046415 -0.22397691 0.65854585 0.56366396 1.0012484 -0.43050829
facilitate -0.044556711 0.8997767 0.32587886 0.68724233 -0.48482209 0.71625 -0.23278123 -0.13329664 0.25987369 0.49194226 0.98772532 -0.053635452
datasets -0.23263481 0.93452829 -0.092753932 0.14405443 -1.2061096 0.82810891 -0.42868978 0.013861066 0.465895 0.281838 1.6815208 -0.11571451
evolving 0.32435742 0.89050758 -0.77161491 0.23083071 -0.50386524 2.0044355 -0.41045794 0.90441263 -0.76282048 0.60614067 0.079831064 0.35702214
solution -0.29594097 0.79879802 -0.19873114 0.7766642 -1.1131918 -0.2539106 0.34813184 -0.55715913 0.14800547 -0.0019991533 0.2357133 -0.18005039
region -0.82440388 0.21431518 0.29347944 0.8791973 -1.3337115 0.27367422 0.21869056 -1.0979946 -0.25680566 -0.14170966 0.58928525 0.037812304
behavior -0.12352999 0.57407051 -0.41199389 0.91895926 -1.1181515 0.51166344 0.42722505 -0.031028412 0.6243211 0.035379875 -0.64010364 -0.12557276
layers 1.1707543 1.6632011 1.4958925 0.99893236 -0.11944067 0.44880748 0.30954987 -0.17379452 0.32136145 -0.61969709 0.56053257 1.2924587
mining -0.1013275 0.94444734 -0.096412338 0.38550529 -0.72275949 0.040312659 0.36466044 -0.16355549 0.028601406 0.24319364 -0.25705272 0.57963014
level -1.3319321 0.94824594 0.10711823 0.32244331 -0.84808093 0.31109303 -0.079340927 -0.20459868 0.23380971 0.22564477 -0.29737285 0.22332408
visually 0.4949308 1.5018985 0.16050419 -0.18795474 -0.47204489 0.26287198 -0.254832 0.13518116 -0.041495789 0.31700823 -0.075986452 0.96468902
levels -0.058080271 1.1099693 -0.12923945 0.41033024 -0.63988507 0.42010495 0.1396931 0.56174767 -0.23325026 -0.084296547 0.81392086 -0.18938951
number 0.91668755 1.0850811 0.5691644 0.26872256 -0.63166201 0.2761991 -0.58137721 -0.27025053 0.16468686 -0.066343777 -0.086766347 0.52110595
context -0.14990568 0.2747668 -0.36244571 0.44087526 -0.6948359 1.1240757 -0.18356778 -0.02803261 -0.56166261 -0.055804908 0.23943397 0.19263858
corpora -0.088476613 0.48984694 -0.66517532 0.27295911 -0.51900905 1.2511206 -0.57136774 -0.14096262 -0.049076252 0.35528192 0.072909787 0.87180692
reveal 0.78605598 0.61719382 0.76461279 0.48485532 -0.7959345 0.65366346 -0.0016916522 -0.55987781 -0.31236863 -0.78747803 -0.074726351 0.61142552
combines 0.55887741 1.3292489 -0.055876799 0.22649948 -0.63531113 0.40780437 0.24926028 0.78243059 -0.35242367 0.43678901 -0.24568971 0.039604075
addition -0.31290293 0.45940229 -0.36519325 1.127721 -1.0427606 0.32432258 0.44026685 -0.788257 0.14724638 0.20195563 -0.13591737 0.24715655
entities 0.65421063 0.57942665 0.22246914 0.93386728 -0.95832813 0.5437566 -0.2132533 0.39531672 0.15450998 0.44128025 -0.75914353 -0.85869664
optimization 0.52306545 0.57755828 0.39132482 1.0840611 -1.1697608 0.45095205 0.88026077 0.20011342 0.17059124 -1.0739063 -0.56711847 -1.0289989
integrated -0.5068261 0.79844159 0.19162568 0.51947814 -0.84147817 0.27817413 -0.071529135 -0.55251104 -0.083413802 0.28421566 0.76521391 -0.099012211
allow 0.10030147 1.4156541 -0.49396724 -0.26824218 -0.44082272 1.4376156 -0.31629321 1.0561336 -0.45920932 0.55234909 0.38220042 0.50476635
routes -1.620564 0.63618618 0.32087553 0.67181224 -0.98218119 0.17442966 0.59812844 -0.86400378 -0.42386001 -0.16599122 0.59790885 -0.4914625
regions -0.59214342 0.67913151 0.60934377 0.88820851 -0.66816914 0.22256982 0.30737171 -0.95175171 0.10862838 0.47375262 0.57833117 0.5709635
transportation -0.763978 0.87982953 0.34673285 0.78038716 -0.34073773 0.18138179 0.57692921 -0.42198491 -0.60108292 -0.087543383 0.26402357 -0.067034669
vehicle -0.87180275 0.27364179 0.082137242 0.77086794 -0.68336546 1.1124949 0.20442934 -0.5657258 -0.26948002 -0.71856999 0.16918816 0.18183567
Case 0.096041605 0.87849939 0.25349635 0.53124189 -1.1442382 0.65039545 0.40875232 0.26378199 0.33349255 -0.49725986 0.63828278 -0.11474842
network -0.11913256 0.91631871 -0.57951373 1.0353401 -0.089387938 1.2808719 0.67767447 0.20965634 -0.93104523 -0.76091474 -0.48376441 -0.12573044
MOOCs -0.11726797 1.1170175 -0.50433284 1.3156422 -0.24772978 0.29736224 0.86960524 -0.21807314 0.023198448 -0.50425458 -0.80945885 0.041268386
solutions 0.50382686 0.98084569 0.061519794 0.87110752 -1.285048 -0.55310363 0.77162659 -0.65206259 0.38852698 -0.2428747 0.15526734 -0.03531095
dropout -0.33402097 0.84647572 -1.174297 1.5167985 -1.2513186 0.3994365 0.59539354 -0.28957373 1.0936544 0.25983414 -0.74954891 -0.56137371
Although -0.1008975 0.6310513 -0.17106679 0.73618281 -0.62223697 0.24443813 0.19101232 -0.3704904 0.24898224 0.19732088 -0.13969024 0.26313445
features 0.062114522 1.0540335 -0.42544645 0.37958547 -0.89396012 0.53968692 -0.032717228 0.39094788 0.032426801 0.1738185 -0.18334018 -0.25557566
convey 0.20117588 1.4852338 -0.16243179 -0.36213884 -0.57508737 0.84265018 -0.22429159 0.66568959 -0.58321631 0.66731715 0.017142272 0.75474435
intuitive -0.35389957 1.1459424 0.36143333 0.42943588 -0.8185547 -0.16375627 0.35763264 0.36007914 -0.48840109 0.26735747 0.16263457 -0.13169965
online -0.22899471 1.1541104 -0.15439011 0.21022415 -0.39998943 0.316861 0.35760257 0.20724446 -0.23307426 0.13624716 -0.45568523 0.29875609
proposed -0.15814036 0.44514596 -0.1002945 0.55885506 -0.98814297 1.197807 0.19519293 0.21006851 -0.082465827 -0.42693609 0.13333428 -0.39684725
It 0.47121546 0.63959289 0.18777253 0.528135 -0.6539883 0.50838464 0.19457436 -0.094245151 -0.35502332 -0.34788591 -0.43151137 0.37003583
words 1.186839 0.56403464 0.52159244 0.25031227 -1.2926428 0.32136706 -0.67083371 -0.65933704 -1.2639366 0.16277468 -0.83497941 1.2535648
idea 0.43168476 0.93621904 -0.36667934 0.14038561 -0.66952425 0.95403552 -0.324038 0.82591254 -1.0353057 0.65253842 -0.45640653 0.31767154
Twitter 0.36704856 1.5764189 0.22850324 -0.45448917 -0.72967833 0.94392079 -0.058606409 1.0922498 -0.42083171 0.26592579 0.40861318 0.2802563
leaders 0.070282243 1.5677977 0.64508969 -0.27393135 -0.72272176 0.50567669 0.25134137 1.2494646 -1.1709902 0.23394638 -0.005405101 -0.081530541
example 0.38122958 0.75630164 -0.055020403 0.35639957 -0.69843251 0.76421154 -0.83038002 -0.085370556 0.12344771 0.52228373 -0.05991976 0.014590194
tools 0.31335056 0.71847063 -0.42606065 0.883017 -0.31803387 0.42382014 -0.073812641 -0.63729656 0.01665212 0.27773097 -0.095388696 0.98739624
multifaceted 0.57868069 0.90528131 -0.5377667 0.53602207 -0.22864588 0.87510985 -0.44440764 -0.46963876 0.12629662 0.5016703 0.35561323 1.1039989
local 0.54748499 0.90301305 0.0065439991 0.91161704 -0.22806296 0.78689432 0.26476258 -0.29356763 0.21083668 -0.43752894 0.24337623 0.92617464
simultaneously -0.16995536 0.94250357 0.028920177 0.80506098 -0.42022723 0.53580624 -0.43372992 0.12851784 -0.20925024 0.5778656 0.083326727 0.14627111
pattern -0.27908966 0.16526671 -0.1779633 1.0683212 -0.71180093 0.55979699 -0.15027665 -0.74860245 0.062804997 -0.11574108 0.093062036 0.48061803
education -0.22009897 0.75267452 -0.58290887 1.0157597 -0.68571925 0.41551855 0.47096378 -0.30213654 0.24548738 -0.070779383 -0.25036556 -0.25311071
support 0.43474379 0.98118263 0.12292393 0.058084492 -0.92690963 0.58188736 -0.446473 -0.28620151 0.38225856 -0.072231762 1.0764891 0.72146881
visualizations 0.13665015 0.9018929 0.4062289 0.57684278 -1.0363714 -0.14050266 0.25582618 -0.45465702 -0.25057477 -0.27537632 -0.066117331 0.20040967
track 0.68223619 0.28228119 1.0813322 0.40467742 -1.4975363 0.24044356 0.082246594 0.13019536 -0.54824764 -0.066718951 -0.33947641 0.32434309
comprehensive -0.59356225 0.64144474 0.11728684 0.73820078 -0.99733448 0.26666003 0.090433285 -0.63127327 0.079278499 -0.24444893 0.37183127 -0.1386383
embedded -0.020959811 0.72183448 0.23457274 0.46646836 -0.95331424 0.53860897 -0.32052335 -0.57783759 0.098015882 -0.59888148 0.67245173 -0.29774868
diversity -1.422798 0.72235721 0.46404222 0.32112047 -1.0332743 0.060260732 0.53370166 -0.59491563 -0.25413769 -0.21570501 0.72038215 -0.30321616
taxi -1.3760153 0.4448885 0.35301065 0.86827177 -0.92218369 0.12618585 0.49208191 -0.77091295 -0.28844744 0.15721533 0.32660982 -0.17763887
vehicles -1.1518035 0.44325128 0.26837921 0.99315453 -0.69287241 0.54577953 0.24464177 -0.70012343 -0.1304422 -0.5443188 -0.045133173 0.23445787
focus 0.026261419 0.82706159 -0.5665912 0.97948784 -0.15401657 0.95458996 0.27399135 0.34590042 -0.72145832 -0.049900975 -0.20693313 0.35873789
evaluate 0.11462084 0.97363746 -0.51280957 0.60529494 -0.55193353 0.90219718 0.047869548 0.22993067 0.34264293 -0.064894766 0.33684152 -0.15602586
statistical -0.62875617 0.84883511 -0.67854732 0.82958883 -0.92755288 0.57203096 -0.18379699 -0.28619862 0.82176757 0.17759375 0.58720326 -0.52548981
multi -0.40965906 0.69045693 0.02401452 0.38562942 -1.1533992 0.21166788 -0.12690741 -0.44091615 0.12770857 0.24264003 0.80223536 -0.080885574
represent 0.098439075 0.50395226 -0.14555718 0.32227072 -0.59730333 0.74997371 -0.62414777 -0.14677639 0.23264776 0.26124895 0.28273898 0.49812534
representative 0.68829042 0.35075554 -0.45719337 0.68336719 -0.66146505 1.0334684 -0.70045274 -0.49011064 -0.93042821 0.44054964 -0.75503665 1.1791447
massive -0.38831908 0.70340627 -0.088908441 0.84384072 -0.28544486 0.16526029 0.38846135 -0.11575697 -0.28196713 -0.11215263 -0.2886686 -0.08463227
tasks -0.4550719 0.67542028 0.40330756 0.72458345 -0.84668005 0.24776326 0.180466 -0.41110492 0.22338276 -0.30901781 0.63161254 0.063578501
cuts 0.26078486 1.2576737 -1.3347228 0.57086653 -0.28980115 2.2058752 -0.55056494 0.98156857 -1.1536005 1.0589935 -0.12356054 0.54985368
interests 0.42019618 1.0231301 -0.36130494 0.50746876 -0.25925884 1.2556119 -0.21506801 0.70562869 -0.20347175 0.33589917 0.16255634 0.15924367
resizing 0.5702402 0.78245264 0.054376677 0.81942588 -1.1064067 -0.32390833 -0.022686243 -0.43806762 0.27755252 -0.85960966 -0.0071393414 -0.17633076
spatio -0.52897686 0.43937993 -0.11385889 0.43958253 -0.94705796 1.3055875 0.24671733 -0.25473595 -0.15498951 -1.1629801 0.41017106 -0.58017087
interviews -0.087904841 0.87242043 0.1504105 0.576186 -1.5858735 0.21604221 0.38256288 -0.33842009 0.60759211 -0.56811959 1.0526439 -0.33151978
connections 0.29739219 1.0240129 -0.3669619 1.1229408 -0.38456988 0.59227502 -1.0935111 -0.18645115 0.37955427 0.88389337 1.1635681 -0.5014115
area -0.55841541 0.3452712 0.11595979 1.1174957 -1.0143218 0.3130357 0.31061089 -0.95141369 0.25499105 0.32963076 0.16916732 0.11280956
CNNs 0.039544977 0.50575233 -0.8248328 0.92481852 -1.3268802 0.34660295 -0.93462336 -0.26303282 0.42059419 -0.3777236 0.31439176 -0.78188527
bipartite 0.16870312 0.79319066 -0.33254367 0.87582654 -0.64756441 0.80498123 -1.1080979 -0.032858942 0.24754323 1.1075433 0.26341531 -0.67285889
forms -0.8497206 0.044539377 0.49289423 0.67407942 -1.4200664 0.33097756 0.11120879 -1.271786 -0.55752087 0.10205879 0.47985113 0.080997363
challenging 0.4106617 0.95164573 0.60988545 0.56916672 -0.25893095 0.34217304 0.18095896 -0.22630093 -0.13063338 -0.25261313 0.016938373 0.77793586
consists 0.60244673 0.74708652 0.12289713 0.083485812 -0.55724293 0.68873119 -0.41878074 -0.081784904 -0.24205063 0.022091685 -0.027359448 0.60877717
interaction 0.12207861 0.85647321 -0.27621707 0.39413691 -0.72989476 0.80399078 -0.12314317 -0.013034204 0.12586728 -0.12851378 0.29537839 0.52460748
refine 0.4520061 0.85104823 0.51304257 -0.053969607 -1.1000984 0.44897744 -0.40973592 0.25465539 0.00016580429 0.47109449 0.57383609 0.56099463
difficult -0.029816402 0.68440211 -0.74515736 0.76326537 -0.60253185 0.55312383 -0.0085654808 0.074653566 0.31970337 0.29562277 -0.12041757 0.047811899
formed 0.055289201 0.77954942 -0.018997205 0.96606624 -0.50866681 -0.037519027 -0.52658093 -0.30719411 -0.055441987 0.47744614 0.65529621 -0.21808849
hotel -0.24826561 1.6324302 0.14916618 -0.45218673 -0.4310247 0.19445591 0.25180212 0.46583977 0.016884895 0.42603397 -0.21722989 0.62202966
business -0.15307686 1.1424118 0.31635928 -0.14361611 -0.48288363 0.37123531 0.30666274 0.18742971 -0.34190455 0.35095266 0.052749541 0.41649336
dynamic 0.35933483 0.48332044 -0.28854352 0.6746161 -0.33673614 1.0380745 -0.12926075 0.14377606 -0.73569375 0.18220709 -0.3977513 0.50255644
chart 0.56968325 0.61195999 0.52540666 0.31075308 -0.99788636 0.3462024 -0.26304376 -0.54514581 -0.73567957 0.017107327 -0.4629887 1.040458
Such -0.26883835 0.50018996 -0.008846717 0.48477426 -0.70084214 0.50882888 0.023067657 -0.16273361 -0.34375933 -0.12174813 -0.21047854 0.15896727
specific 0.070190586 0.84145021 -0.25788775 0.18623523 -0.52190608 0.68986917 -0.058222357 0.035622112 -0.66552824 0.30210757 -0.10545246 0.32810351
lack 0.028596947 0.5672285 -0.1842919 0.83233154 -0.74867845 0.12735397 0.067118242 -0.62377059 0.066730462 0.17959785 -0.017643414 0.35876566
document 1.3305535 0.55324686 0.19510694 0.59876204 -1.0490276 0.76844627 -0.71401864 -1.2128775 -0.63577473 -0.072131418 -0.59010375 1.7700473
FacetAtlas 0.15343463 0.68288207 -0.54963475 0.5523209 -0.23183285 1.0409713 -0.41284907 -0.54361153 0.060399059 0.47382069 0.44073662 1.0117145
density 0.30141091 1.2724836 0.078438155 -0.063973136 -0.54546332 0.83544195 -0.14142148 0.48411134 -0.31126648 0.3636393 0.40891972 0.45091015
pose -0.4901545 0.89845544 0.28104416 0.345837 -0.69408941 0.22124487 0.45269802 0.19823468 -0.49179909 0.055995204 -0.22409317 -0.20794018
approaches -0.37321004 0.332903 0.24994628 0.57985795 -0.95872688 0.12760945 0.089305028 -0.61065632 -0.36276159 0.26213756 -0.27095449 0.41885567
storyline -0.052001838 0.96412879 0.62974161 0.31642747 -0.94369942 0.17121938 0.40233865 0.63277411 -0.54964739 0.21758318 -0.35512495 -0.33247879
parallel -0.91091174 0.56745571 0.2118694 0.70723641 -0.66728675 0.4329114 0.024825966 -0.91474044 -0.53297251 -0.043147039 0.48670685 -0.29156861
systems -0.52456176 0.62632853 0.22756782 0.52721184 -0.25846186 0.14147754 0.049081203 -0.43512413 -0.48484817 0.1612284 0.28050083 -0.097642146
interesting -0.30553469 0.63285661 0.47770879 0.61157429 -0.79306376 0.32357591 0.037254907 -0.62769157 -0.15619923 -0.41419813 0.46212003 0.15168272
propagation 0.33042231 1.7942445 0.20444717 -0.57152939 -0.69145375 0.68028098 0.031753436 1.0571063 -0.48606595 0.46974686 0.015420818 0.35827205
called -0.17476815 0.91851622 0.17383763 0.012255286 -0.72260594 0.55053061 0.31706938 0.30116466 -0.57984251 -0.27038661 -0.14285056 -0.12660292
feature -0.093865633 0.73203057 -0.17392388 0.58595502 -0.7095446 0.31732944 -0.018792691 -0.20151918 -0.17710872 -0.059515916 0.1420638 0.078206509
GPS -0.76850343 0.65842909 0.29303694 0.90281498 -0.63569844 -0.10695667 0.52486575 -0.45502332 -0.11479747 -0.065175109 0.16668271 -0.16958171
attributes -0.80644321 0.70305979 -0.11080521 0.55387264 -0.81685305 0.36161622 -0.32038474 -0.31215402 0.24188103 0.54219645 1.0408421 -0.44493827
cells -0.71652347 0.2300283 -0.14949939 1.0866449 -0.66224509 0.60238779 0.05492378 -1.0218379 0.06786418 -0.63300151 -0.12365622 0.43739641
movements -1.1960754 0.39795572 -0.027732886 1.0976416 -0.72223473 0.34620559 0.11329663 -0.86524457 0.0032120342 -0.54462868 -0.2178212 0.29164287
macro -1.252818 0.52301466 0.14440399 0.95367247 -0.8492009 0.45008129 0.18036476 -0.69590271 -0.13042966 -0.38774291 -0.2282382 0.28048584
micro -1.0150164 0.61873645 0.03728649 0.7304706 -0.84286487 0.5806182 -0.065384403 -0.24609129 -0.21810365 -0.13597153 -0.30569196 0.12234621
dataset 0.16326545 0.75214779 0.53844017 0.83878863 -0.83655667 0.57733011 0.37939245 -0.4445416 0.28850311 -0.69873893 0.71005958 0.51920772
allows 0.050167847 0.9010613 -0.33348817 0.74158353 -0.71852237 0.5006243 -0.031049302 0.095393218 -0.036728106 0.43043828 0.15589032 -0.21700354
correlated 0.14835982 0.924986 -0.13224669 0.060692389 -0.95428979 0.71556008 -0.066792905 0.67999697 -1.0491517 0.39241692 -0.074100152 -0.062218372
ThemeRiver 0.64092535 1.3003399 1.0865028 -0.02282548 -0.89459115 -0.18815935 -0.11212428 0.11024871 -0.66475397 -0.098553449 -0.028399954 0.43567556
multidimensional -0.34661973 0.86701596 -0.69898075 0.47060579 -1.0200739 0.7155152 -0.67135262 -0.015059031 0.84013534 0.55140609 1.1651478 -0.42982471
detailed -0.24318449 0.73642737 -0.036690362 0.77393711 -0.51838946 0.38949925 0.17106026 -0.30282995 0.24571572 -0.15776873 0.35982201 -0.21822572
helps -0.10286331 0.21145628 -0.2706427 0.91302603 -1.4741989 0.33396012 -0.32902423 -1.0299816 0.14435336 -0.067862526 0.2602762 -0.077120952
cities -0.76989639 0.64259356 0.32319954 0.48938698 -0.65084839 0.36226863 0.22261982 -0.23296919 -0.32257882 0.030210344 0.75321007 -0.048525915
visualize 0.35011119 1.2245234 0.48452342 0.87941235 -0.33028001 0.090338305 0.75520825 -0.044469088 -0.060865857 -0.1873505 0.32431054 0.29107511
PTS -0.7121231 1.1156617 -0.064917997 1.1513684 -0.32121286 0.31552061 0.69309044 -0.2410754 -0.5111286 -0.0099367974 0.095182113 -0.40840939
researchers -0.54193586 0.84891868 -0.52186847 1.1110587 -1.0218943 0.35259217 0.44363818 -0.33448476 0.36922139 0.21411811 -0.30323496 -0.43009371
dynamics -0.58643174 0.68702465 -0.26063442 0.88040239 -0.88441813 0.33571017 -0.2576389 -0.44960088 0.087615065 0.14338496 0.24327312 -0.40902445
research -0.30582148 0.55056602 -0.22679092 0.58704007 -0.6496309 0.43303204 -0.051839262 -0.25287414 -0.1598914 -0.15655455 -0.19547229 0.33130488
interested 0.67166722 0.68288416 0.68727779 0.31644255 -0.93594843 0.42040986 -0.6061492 -0.26967305 -0.3697955 0.43122175 -0.43019041 0.55741423
values 1.1549976 1.1521021 1.1000196 0.4919703 -0.63537079 0.10153446 -0.12042753 -0.85379958 -0.048463874 -0.44903404 -0.019372441 1.2071868
glyphs 0.65157652 1.2773674 0.27488539 0.30135486 -0.81563836 0.23776376 0.19150896 -0.29486129 0.040982317 -0.2711668 0.23381351 0.35226077
trees 0.25503159 0.90310025 -1.1413012 0.55124718 -0.26798892 1.8170583 -0.51438242 0.67447048 -0.92479187 0.71706009 -0.2712802 0.65785688
cut 0.056831945 1.3404655 -1.183197 0.19042757 -0.31094253 2.2186491 -0.45788035 1.0994557 -0.89824837 0.8526482 0.20974115 0.35255706
news 0.30059808 1.0933262 -0.26595148 -0.095389538 -0.71321994 0.87883276 -0.36987433 0.64176899 0.14593461 0.37488332 0.33378756 0.059518021
picture -0.22645988 0.70621485 -0.26276338 0.37775078 -0.86961311 0.7074517 -0.31723046 -0.071464092 0.12299174 0.37236688 0.33773032 0.010787646
common 0.26165211 0.88127184 -0.37281457 0.57985079 -0.69419348 0.89372265 -0.73142415 0.4075816 -0.05928554 0.91941333 0.13669123 -0.44596604
formulate 0.19742738 0.71407199 -0.4189882 0.6727218 -0.98767358 0.33589119 -0.029824153 -0.35786325 0.1427941 -0.70995313 -0.0025230872 -0.32499239
road -0.66186726 0.46978915 -0.042372812 0.57448334 -0.89520252 1.2965783 0.40967923 -0.28097737 -0.32087329 -1.0921053 0.20395382 -0.45238459
views 0.19835061 0.92725593 0.57582897 0.67237544 -0.55366004 0.83348012 0.58529675 -0.12980573 -0.007889404 -0.63240963 0.58524227 0.37234348
huge -0.23969379 0.63225365 0.0073040724 0.68675387 -0.75725174 0.24355567 0.29651222 -0.10142712 -0.049710736 0.32309407 0.30123785 -0.090991572
loyalty 0.056259945 0.48154223 0.26510087 0.1449665 -1.2063124 0.70427191 -0.050920635 -0.080670878 0.073627301 0.18362762 0.23943631 0.090210319
human -0.89608014 0.24161807 0.22721489 0.79312921 -1.2393754 0.086081363 0.0043220706 -0.87115729 -0.27891985 0.18234734 0.093373023 -0.089834668
learners -0.42364919 0.94462544 -0.53338122 1.2935656 -0.54110217 0.17418404 0.77732754 -0.39957941 0.12042437 -0.3922731 -0.62011319 -0.30484736
MOOC 0.073300727 0.94992483 -0.21622624 0.95731884 -0.62808758 0.56275254 0.66212577 -0.079254262 -0.16398448 -0.83494633 -0.11815553 -0.047145233
learner -0.22212322 0.79433876 -0.5204522 1.0656178 -1.0694718 0.45650664 0.49446839 -0.2028475 0.45016089 -0.2994155 -0.34236509 -0.61414397
course 0.14577013 1.0548185 -0.26779708 1.1395472 -0.39909506 0.50014251 0.71700561 -0.038629726 -0.30988577 -0.73871607 -0.49319825 0.24643826
enables -0.14712654 0.9226355 0.035816547 0.89717638 -0.91988432 0.061398122 0.65773052 -0.29753846 -0.15406853 -0.47166193 -0.12909332 -0.062371917
peaks 0.10901426 0.84419268 -0.18120717 0.53650159 -0.97487503 0.72161353 0.6209234 0.0084223216 0.056213226 -0.91010344 0.3982648 -0.5402621
bi -1.4055872 0.75236863 0.43163189 0.75152087 -1.1078528 0.019160526 0.15043487 -0.24732618 -0.23432916 -0.10111293 0.09113273 -0.29653528
directional -1.3851792 0.73421091 0.36964899 0.85276449 -1.0899251 0.089552008 0.19133767 -0.25921887 -0.25645196 -0.099620707 0.087291114 -0.30605915
planners -0.28226724 0.43715543 0.21233521 0.92381018 -1.1139019 -0.20162028 0.37980983 -0.7969048 -0.14428264 0.13463044 0.041125573 -0.050378893
indicators 1.1534641 0.49419394 1.3950936 0.34396797 -1.6608175 -0.0015491337 -0.37303388 0.14080493 -1.027796 0.094324604 -0.48049304 0.81938696
activity -0.64077234 0.59564531 -0.38181493 1.2879328 -1.3530372 0.13241714 0.22311147 -0.7988705 0.66284156 0.24595439 -0.098737828 -0.27431637
street -0.82483488 0.036897134 0.40610591 0.61059195 -1.4169245 0.5233506 -0.051635124 -1.3548887 -0.47590414 -0.12842618 0.88464576 0.023506192
limited -0.023362162 0.28307834 0.53707641 0.39110214 -1.0313998 0.27064162 -0.0052957283 -0.5274111 -0.5431881 0.25846171 -0.10671388 0.75138849
components 0.58358198 1.1983128 0.37373015 -0.061811969 -0.58854163 0.53530222 -0.32026002 -0.048900522 -0.12085173 0.084282957 0.22481097 0.78738713
progressively 0.20499435 0.87146986 -0.37495738 0.024691902 -0.52132559 1.3775815 -0.28243399 0.69254869 -0.30362731 0.44337565 0.24505411 0.36020616
Finally -0.39426509 0.67930448 -0.10284062 0.25627974 -0.86189824 0.63830453 -0.097496547 -0.22069848 0.0006730092 0.16163576 0.19851905 0.57640958
framework 0.38223064 0.81687522 0.072358496 0.9708724 -0.83207637 -0.41984975 0.19874036 -0.41922846 0.051531252 -0.24633178 0.047655173 -0.0030103333
edges 0.38291436 0.84104705 -0.17725135 0.98990613 -0.42733234 -0.12483134 -0.37944108 -0.27292413 -0.093413584 -0.0051867696 0.56538981 0.23150265
reduce 0.34811842 0.90307271 -0.37811357 0.99119699 -0.87780952 0.01661462 -0.72583759 0.022637246 0.20963503 -0.24692631 0.61420977 -0.57532001
control 0.37236446 0.77860934 0.02940188 1.3014306 -0.62904727 -0.7064057 -0.36522421 -0.16018026 -0.15074669 -0.40247771 0.74009478 -0.28325051
mesh 0.38822463 0.75914383 0.054236069 1.3154219 -0.59368032 -0.70818067 -0.31345573 -0.17423564 -0.20653716 -0.38839036 0.78487587 -0.27839801
generated -0.0037741305 0.84403306 0.52519161 0.87426019 -0.36055893 -0.036651451 0.14748053 -0.11842954 -0.053194415 -0.23989081 0.60399008 0.097895324
automatically 0.32316875 0.89958578 -0.20927334 1.0852436 -0.57061779 -0.19311661 -0.51003599 -0.1815625 0.096169643 0.097248212 0.61364561 -0.3147341
underlying 0.16394232 0.73235458 0.30055532 0.95081002 -1.1097101 -0.30402029 -0.14291996 -0.80024302 0.074498326 -0.31805569 0.60165161 0.21527134
advanced -0.1768149 0.64952987 -0.14839223 1.0247456 -0.68894368 0.18813199 -0.11686853 -0.6634804 0.078296758 0.23120888 0.40106404 0.32569522
rapid -0.3760041 0.92483222 0.25934234 0.078695536 -0.53461009 0.27962574 0.1980041 0.00035155291 -0.11483078 0.46251264 0.20261389 0.32107142
development -0.30729511 0.68985003 -0.37505448 0.80714947 -0.70786709 0.082781948 0.071476534 -0.2522085 0.36957303 -0.23207937 -0.3037076 -0.25750691
services -0.22574824 1.237551 0.10173132 0.0093972832 -0.30868012 0.16859438 0.22351204 0.30036464 -0.21989807 0.24209413 0.070193194 0.32649803
OpinionSeer -0.054886434 1.8079381 0.052480407 -0.5230301 -0.59711576 0.40662861 0.025595648 0.62644047 -0.028000178 0.50893891 -0.050131302 0.63102233
collection 0.71521527 0.70736867 0.30134198 0.12185893 -0.94692999 0.4670825 -0.4427692 -0.75927675 -0.37998509 0.032225948 -0.30675131 1.3461516
modeling -0.12587808 1.0729392 -0.36876056 0.22127751 -0.69211584 0.56907016 0.043132935 0.34767577 0.21677893 0.54334867 -0.24582374 0.070364267
comparing 0.053789295 1.2253454 0.034093425 0.43326414 -0.65097302 -0.11200722 0.4395439 0.10604661 0.21385178 0.069999911 -0.15041471 0.14596404
feedback -0.20035967 1.1778293 -0.080462798 -0.0093699079 -0.73063934 0.47298062 -0.3880356 0.41258502 0.063132346 0.51574558 0.80339783 -0.19804606
sequence 0.60389495 0.3246296 0.13242976 0.44621414 -0.58858633 0.5288564 -0.31722987 -0.34596521 -0.59994251 0.05662296 -0.39551941 0.77170765
dispersed -0.021636674 0.72092193 0.35012552 -0.057543013 -0.73443174 0.47880298 -0.048670225 0.55906492 -0.61982578 0.058152515 0.16972038 -0.12062688
processes -0.065919526 0.66371107 0.11453857 0.18695797 -1.1126754 0.29849187 -0.20364034 0.28691113 -0.46331823 -0.10026835 0.33060381 -0.3619459
metaphor 0.26396638 0.80892497 0.33978605 0.32789695 -1.0149745 0.25885051 0.12230337 -0.13307235 -0.33567628 0.080194935 0.090843789 0.1742914
tweets 0.19339222 0.95694733 0.22302172 -0.13670631 -0.8865658 0.80328882 -0.24515378 0.57307166 -0.38484544 0.22055233 0.46387687 0.087926008
extracted 0.057373699 0.79743427 -0.28395602 0.40286681 -0.98925453 0.75979608 -0.098794825 0.31983966 -0.029824112 0.29655913 -0.21284255 -0.16026285
pathways -0.3457545 0.83323961 0.088188477 0.35326025 -0.72464377 0.80258793 0.13112578 0.25621831 -0.60950112 -0.066801637 0.089452349 -0.34908697
roles -0.082026929 1.2188849 0.55151486 -0.32088935 -0.65077597 0.52127475 0.16906378 1.00886 -0.90666956 0.15339421 0.027155237 -0.011697763
facilitates 0.33361211 1.1238623 0.39119893 -0.23037441 -0.78017849 0.37191024 0.18891443 0.89424324 -1.0935242 0.12244051 -0.1917339 -0.041547753
rich 0.58460432 0.80232215 0.12797207 0.36715022 -0.53350556 0.52183658 -0.2805579 -0.59910131 -0.12721899 -0.099971622 0.11174832 0.95856136
contain -0.56431061 0.46798095 0.1789571 0.48056474 -0.54646331 0.28879562 0.027116025 -0.41397488 -0.3006869 0.079624131 0.14164822 0.074855611
Thus 0.49991819 0.79287964 0.16294642 0.76119828 -0.32975829 0.75698978 0.28429046 -0.20617791 -0.05626535 -0.58933783 0.036977313 0.70390511
keywords 1.0255291 0.40316063 0.12744957 0.63526016 -0.91120744 0.74306107 -0.7339291 -1.1797016 -0.59598303 -0.12635837 -0.40007922 1.5310395
global -0.15573891 0.81385911 -0.40442228 0.39660695 -0.47709453 1.2468975 -0.1685887 -0.060067151 -0.41876569 0.38594964 0.35812765 0.57236195
automated -0.60698998 0.3486135 -0.21165244 0.88463986 -0.81892264 0.342969 -0.022943992 -0.8581115 -0.30167979 0.33625633 0.11391325 0.45398492
power -0.68852842 0.62580353 -0.13726386 0.65928227 -0.83035135 0.47400537 -0.20578764 -0.43279651 0.21771483 0.25137204 0.66190183 0.012581288
complexity -0.30610377 0.5840618 0.20777799 0.61571181 -0.52522439 0.12148377 0.32362005 -0.088100627 -0.45316234 0.079807267 -0.122347 -0.040006116
hybrid 0.48629186 0.55008382 -0.12013914 0.4639014 -1.0253463 0.54513365 -0.41136244 -0.013975541 0.094306827 -0.020364696 -0.17432335 0.017709887
multivariate -0.49346265 0.44919047 0.12208439 0.83111298 -0.81583953 0.19800548 0.14892383 -0.55819845 -0.37368101 -0.035655379 0.038879722 -0.1245738
intelligence -0.57449281 0.69073522 0.12977892 0.37257284 -0.73108131 0.32777974 0.16008985 -0.35882458 -0.060029905 0.43275985 0.21570234 0.32544851
detect 0.83556914 1.5610321 0.95922005 -0.034445498 -0.59203434 0.38110185 0.24611019 0.44442928 -0.63457566 -0.18225536 -0.033701494 0.80076897
usability 0.11149254 0.74492651 0.15865834 0.17450769 -0.94379318 0.9784655 -0.16000527 -0.094453841 -0.082088605 -0.378167 0.54545748 0.31417575
drivers -1.1756271 0.42121908 0.22474414 0.8121807 -0.97507453 0.14092462 0.35594901 -0.82495648 -0.2051733 -0.1884941 0.55224097 -0.35516164
destination -1.1475332 0.60739601 0.15775068 0.79307157 -0.83261222 0.29678023 0.43368936 -0.58969116 -0.37490204 -0.038729478 0.34135962 -0.42774737
environments -0.13954476 0.2959581 0.72085136 0.50730085 -1.064353 0.0080397762 0.07297457 -0.56058788 -0.56247437 -0.073549554 -0.039428648 0.090250805
dimensional -0.89243752 0.39205703 0.20207976 0.58005905 -0.81916636 0.31095576 0.17009032 -0.58891898 -0.146966 -0.10039908 0.33035865 0.094577052
statistics 0.0033172588 0.72710955 0.43299201 0.4118042 -0.91264921 0.16763061 0.091230348 -0.51424128 -0.10166605 -0.40914807 0.13582015 0.11323639
findings -0.64682162 0.66799301 0.10328668 0.76512951 -1.0904663 0.58848441 0.25559703 -0.35268244 -0.022121333 -0.56737632 0.72588032 -0.34744251
roads -0.58532947 0.41776839 0.082327552 0.58021569 -0.86867219 0.91945547 0.11887416 -0.54064995 -0.072920501 -0.67842185 0.24749218 0.05199242
cell -0.21978241 0.33910853 0.17748727 1.1007872 -0.71723688 0.68060708 0.25318167 -0.59541881 0.040206756 -0.67037457 0.044174701 0.39465821
congestion -0.11343089 0.60743815 0.16297384 0.92049819 -0.66109812 0.14028592 0.2243292 -0.30781937 -0.064081021 -0.55931145 0.11985673 0.002973499
selection -0.32814994 0.55444658 0.045737188 0.86853701 -1.1158278 0.29445067 0.10799503 -0.63403636 -0.00015596626 -0.23830235 0.42492813 0.19741969
compete 0.53810394 1.1326191 0.44318014 -0.14825359 -0.40279514 0.41868052 0.206348 0.71711713 -1.0779955 0.20924011 -0.26106569 0.23509856
attention 0.30207619 1.3204285 0.43239117 -0.30219358 -0.41733569 0.53925896 0.23921618 0.94931161 -0.95700759 0.29057422 -0.11926979 0.19711502
competition 0.20932288 1.3822362 0.30113408 -0.28656664 -0.4949151 0.60129005 0.14560686 1.1038048 -0.80302137 0.30973449 -0.097030148 0.073876731
timeline -0.072275326 1.2772275 -0.22078797 -0.075458549 -0.91542512 0.88667679 -0.11214878 1.09577 -0.85282493 0.47876385 0.27276936 -0.16406345
interpretation -0.48071536 0.83118904 -0.14482531 0.18536249 -0.88734311 0.40147498 -0.38815498 0.11965821 -0.11092998 0.51084965 0.43383831 -0.12529825
change 0.48508203 0.87669134 1.0653957 -0.035778444 -1.0409789 0.089540377 -0.14477988 0.08708211 -0.68185961 0.031616047 -0.31116664 0.69549757
comparison -0.8578248 0.50073922 -0.063883632 0.61264265 -1.0516471 0.43144685 -0.20419665 -0.78217942 -0.1572219 0.2567777 0.784666 -0.37268552
evaluated -0.010471194 0.96231395 -0.68307281 0.52432418 -0.86793816 1.0606964 -0.66396385 0.24628927 0.15987678 0.49150869 0.8594144 -0.31603831
generate -0.095852248 0.97105092 -0.54358023 0.46449354 -0.92556298 0.73661947 -0.17559023 0.46152076 -0.16828783 0.14059089 0.56676942 -0.50481367
clutter 0.021593034 0.88373852 -0.55832899 0.82364821 -1.0421615 0.38895652 -0.85332388 0.023392141 0.44398481 0.0068254615 0.85417062 -0.73167908
depth 0.91804761 1.3612136 0.80344665 0.44235265 -0.47502494 0.11048376 0.50230789 0.35359386 -0.25312895 -0.27832556 0.089557298 0.57273984
semantic 1.1500735 0.41608009 0.55447042 0.53398788 -1.1778882 0.46455407 -0.70394677 -1.2090918 -0.65127683 -0.25102749 -0.40372822 1.5135798
cloud 0.91767818 0.44148591 0.424402 0.48094931 -1.1592649 0.60315806 -0.59016258 -1.0709741 -0.70326281 -0.17527132 -0.25332421 1.2826701
highlight 0.06929303 0.21615976 -0.0040246393 0.41493499 -0.91272044 0.76558161 -0.32610574 -0.80682176 -0.35143861 -0.52169716 -0.13542828 0.55740023
differences 0.14288199 0.74280095 1.0163211 0.94718289 -0.7902841 0.092784725 0.015767075 -0.92527592 -0.20017114 -0.49595356 -0.18307391 0.95188874
factors -0.61935669 0.92914289 -0.27547467 1.1810668 -0.49691889 0.23407987 0.73628581 -0.39060387 -0.13756482 -0.16730016 -0.24115665 -0.42154092
passenger -0.74098325 0.829579 -0.0078217657 1.1213318 -0.73403758 0.20137097 0.46197051 -0.60617137 -0.12624864 0.0064148405 0.069907404 -0.25399581
millions -0.41511849 0.90968496 -0.33607143 1.0958823 -0.37960434 0.33013794 0.59651488 -0.34547633 -0.058063447 -0.24069683 -0.31102136 -0.36049682
trajectories -0.85187465 0.58652049 0.062859848 0.84455645 -0.95500308 0.48785487 0.37038684 -0.68053252 -0.079469271 -0.093280427 0.1198172 -0.22585031
category 0.7684316 0.89129311 0.60510963 0.40608561 -0.8946951 0.17694108 -0.27189943 -0.89684719 -0.20178385 -0.47704148 -0.069878049 1.052191
evolutionary -0.1028202 0.93034631 -0.81579858 0.012530019 -0.45953301 1.5280617 -0.50845736 0.63449532 -0.42753628 0.64014274 0.20264488 0.44782636
engines 0.32693261 0.6952278 0.49857607 0.15316494 -1.1029062 0.54767025 -0.25502786 -0.27790475 -0.10792387 0.042696342 0.026823545 0.52707851
challenge 0.072274409 0.70226526 0.33971018 0.53571004 -0.89244747 0.15258771 0.045964383 -0.33614174 -0.041513942 -0.26158237 -0.20578098 0.12464918
historical -0.31140664 0.70668507 -0.20605205 0.39868355 -0.52886403 1.4032545 -0.015928155 0.23298955 -0.39748356 -0.15754919 0.40175918 0.065101042
able -0.19623137 0.99635458 -0.58657157 0.29290473 -0.4701784 1.3498766 -0.18975072 0.62370646 -0.57777125 0.60170144 0.37110534 0.16626823
matched 0.5860272 1.3611596 0.093273386 0.0027987829 -0.48392427 0.90701699 -0.2579881 0.88438207 -0.21868452 0.3460407 0.46364987 0.11370482
matching 0.46706533 1.4129173 0.022767829 -0.19725947 -0.6563552 0.86716825 -0.4050535 0.78498971 -0.035209037 0.38073045 0.68307072 0.20475651
perception 0.051146541 0.55679947 -0.15379086 0.9266628 -0.92758232 -0.1833102 0.090043589 -0.59186143 -0.038045455 -0.51408792 -0.099624068 -0.12259544
energy 0.10395311 0.71945864 -0.18407121 1.038259 -1.063424 0.36619931 0.46807608 -0.3247897 0.21211745 -1.3516072 -0.014251567 -0.54917341
function 0.1008433 0.71935302 -0.23010401 1.0815985 -1.0161421 0.38956732 0.48085809 -0.28608146 0.20796959 -1.3921751 -0.039714355 -0.64047188
big -0.73425138 0.70497978 0.28561652 0.4800753 -0.81727445 0.26165512 0.19820154 -0.077623866 -0.30034354 -0.009236116 0.46692675 -0.098636337
monitoring -0.70550567 0.64068687 0.19498397 0.6658724 -0.80997944 0.73746407 0.25209564 -0.10861297 -0.13911931 -0.23178805 0.40723717 -0.15296638
interface -0.37653804 0.9129343 -0.43999898 0.83776075 -0.53206384 0.68500173 -0.66816664 -0.20864132 0.108806 0.87192184 1.0848948 -0.34175441
detection -0.65283138 0.45381099 0.11784639 0.65760785 -1.0897981 0.83842713 0.14796986 -0.4973186 -0.14557029 -0.36388838 0.6528576 -0.18393046
integrate -0.24392152 0.51715678 0.23678342 0.27781677 -1.141144 0.60803539 0.08358442 -0.32726195 -0.75546014 -0.068696149 0.16183934 0.11976993
collected -0.44314289 0.33578321 0.01437718 0.58370703 -0.72552282 0.4975526 0.14273919 -0.14697343 -0.12494246 -0.18995328 0.10565452 -0.13348952
enable 0.18178767 1.0664499 -0.35073242 -0.025033239 -0.63708925 1.3236371 -0.43222514 0.34506604 -0.27778718 0.64757234 0.55904269 0.49470794
log -0.19354999 0.63314247 0.037811141 0.60329485 -0.73913175 0.46633863 0.1650553 -0.064627938 -0.018531317 -0.034498103 -0.13172342 -0.084107503
unprecedented -0.40366295 0.28482282 0.12874217 0.46511072 -0.95568126 0.32274842 0.060725886 -0.27100495 -0.057854157 0.16408521 -0.082599871 -0.15395138
locations -0.064091161 0.60456818 0.16758317 0.91844642 -1.2762933 -0.1053559 0.10918213 -0.86781633 0.09599939 -0.26556182 0.40113863 0.07208024
construction -0.98960418 0.51952636 0.024808727 0.76003063 -1.0182583 0.30495468 0.020530682 -0.54208666 -0.49329489 0.27591589 -0.09615127 0.30492896
machine -0.58753973 0.44204819 -0.27216721 0.79670107 -1.257072 0.43540001 -0.30543923 -0.68948752 0.061981335 -0.267465 0.75390714 -0.22963342
open -0.28037947 0.72997028 -0.23429862 0.82411253 -0.27245277 0.30193299 0.47488618 -0.060415626 -0.050627578 -0.23062286 -0.35101119 -0.17693016
courses -0.040049158 0.96885586 -0.11871795 0.94582278 -0.30296844 0.53720063 0.58855575 -0.018798241 -0.3267338 -0.57191324 -0.36529341 0.17647308
attracted -0.13978045 0.8878364 -0.26198936 0.97838175 -0.32015508 0.28208816 0.53087687 -0.16679396 -0.015301287 -0.25838143 -0.46101543 -0.063304894
video 0.092539661 0.98491395 -0.22784343 0.92267281 -0.56265038 0.36967716 0.51747572 -0.052822944 -0.25453848 -0.66562951 -0.20486861 0.027643375
overview 0.096058138 1.1329595 -0.76212597 0.3043308 -0.66967738 1.3816233 -0.10926796 0.7515009 -0.85542613 0.46218464 0.13370329 -0.049306296
regarding 0.3535566 0.9156329 -0.015704691 0.14461191 -1.0437132 0.43791637 0.24294452 0.45603752 -0.64435524 -0.25004163 -0.032371663 -0.26475513
issues 0.54098749 0.59088659 0.89297229 0.32264179 -0.80076987 0.18127622 0.016404692 -0.23256966 -0.58588868 -0.14213495 -0.17925856 0.99910265
details 0.018764259 0.60375905 0.13146615 0.55238831 -0.53375351 0.93037748 -0.020457895 -0.42008251 -0.19274661 0.017824627 0.60222876 0.44412065
similarities 0.076889858 1.146533 1.0821654 0.98409271 -0.41550192 0.081155248 0.31241056 -0.18781964 0.19853944 -0.50744712 0.15865837 0.71753055
Among -0.49596515 0.67664766 -0.13727233 0.84169298 -0.64717168 0.028347626 0.10896824 -0.14065583 -0.056133263 -0.33228087 -0.23107973 -0.14495969
knowledge -0.75091267 0.48422715 -0.060465179 0.80387574 -1.0281489 0.33645931 -0.41578805 -0.72514927 -0.023032637 0.48520446 0.69730848 -0.18783754
View -1.3363144 0.59873003 0.23473144 0.80607086 -1.1944845 0.35075492 0.023395315 -0.75965083 -0.14004102 0.054212995 0.16009904 -0.046849985
expert -0.030716671 0.94964784 0.19726187 0.5942989 -1.4597663 0.22287062 0.25684568 -0.21733536 0.38047329 -0.40548041 0.65727437 -0.20433466
planning -0.53287685 0.40212175 0.30969104 0.3998816 -0.85582691 0.47911668 0.21707109 -0.57434458 -0.18508914 0.10028993 0.25975281 -0.016975757
zooming -0.62140524 0.50168729 -0.068532601 0.52127939 -0.91848272 1.2317622 0.2947672 -0.26027185 -0.18246795 -1.0882792 0.25162512 -0.67951959
tackle -0.48821107 0.86376143 -0.21214654 1.2413435 -0.74727374 -0.092320815 0.41725627 -0.55329901 0.30654058 0.1276831 -0.29759863 -0.2206396
location -0.12548681 0.72331953 0.22568627 0.71950573 -1.0880944 0.069865234 0.21737415 -0.8435173 0.24968213 0.081781112 0.61474675 0.25854233
identify 0.10546184 0.79036826 -0.60156357 0.90311646 -0.82175553 0.77464837 -0.27219668 0.13727185 0.036788151 0.70679432 -0.43669504 -0.22575372
performance 0.15798104 0.45450237 0.14060414 0.69458503 -1.2898662 0.042066656 -0.15692574 -0.19801711 -0.024677975 0.12121242 -0.37430468 0.04139005
neuron 0.23164091 0.94006211 -0.73309553 0.57066953 -1.177547 0.51922613 -0.90459812 0.13013332 0.35047394 0.039567262 0.6009928 -0.6706537
economic 0.72211689 0.59543192 1.195172 0.22604848 -1.2992214 0.050473638 -0.20607126 -0.021509985 -1.0012867 0.17123108 -0.35038286 1.0495062
correlations 1.0105286 1.4004109 1.2597148 0.61144775 -0.42379883 0.65275747 0.39110181 -0.075849012 0.28678015 -0.54259324 0.71362239 1.2114112
ideas 0.28142038 1.1187619 -0.15389621 -0.1029849 -0.98367989 0.68509555 -0.17410675 0.91821772 -1.1432493 0.46961385 -0.11691397 -0.057628863
IdeaFlow 0.062434025 1.2020996 -0.073800936 -0.087887228 -1.0527415 0.65147382 -0.10969169 0.80820537 -0.86689532 0.40074462 0.11483651 -0.043407355
capture -0.7979877 0.59890193 0.093392119 0.96151841 -0.99472994 0.31997925 0.0012894989 -1.0616233 0.24816228 0.53980005 0.51688629 0.29719889
activities -1.0238427 0.52988189 0.072807573 1.0669683 -1.2079452 0.23082462 0.026614582 -0.95804161 0.10371365 0.54629177 0.097905524 0.039011165
DGMs -0.30469388 0.58215892 -0.90651566 1.1893696 -1.1986133 0.26513293 -0.38564289 -0.34506041 0.32536498 -0.61688972 0.18553931 -0.85813779
task -0.24605581 0.32520542 -0.020994684 0.51765275 -0.60616297 0.31431544 -0.016170418 -0.31110856 -0.24645734 0.046292305 -0.017211094 0.078781709
TextFlow 0.23687313 0.63367575 0.058221452 0.073330045 -0.58768344 0.67580765 -0.046298828 0.0064830342 -0.16323549 0.0010870072 0.14186805 0.52831244
extend 0.36197579 0.94571584 -0.075746566 0.16646351 -0.5218634 0.56088018 -0.14956424 0.15833072 -0.069904365 0.28157595 -0.096562587 0.50443769
extract -0.057815 0.57459831 -0.32002071 0.5291155 -0.88026756 0.36293957 -0.5050649 -0.084316015 0.01040176 -0.042533711 0.027913131 -0.15568852
event 0.16773832 0.82627398 0.16676173 -0.046908163 -0.72766137 0.85430306 -0.12465167 0.34425238 -0.4506512 0.030962737 0.039288905 0.33677554
helping 0.20725767 0.62680942 -0.035983544 0.15225397 -0.61809373 0.65900511 -0.072485641 0.1556706 -0.13537762 0.1091023 0.07659997 0.34657961
crossings 0.28558818 0.66370654 0.04310469 0.73643667 -0.63666183 -0.18887597 -0.17602894 -0.17101197 -0.12813075 -0.14155851 0.33306536 -0.034342222
geometry 0.69559437 0.54204446 0.30455253 0.69885951 -0.89248848 0.096662134 -0.42677262 -0.7200824 -0.4512921 -0.20600797 -0.15492319 0.75058264
bundles 0.32085291 0.73973197 0.029414264 1.0862068 -0.69938838 -0.41555387 -0.24543492 -0.1604045 -0.1711704 -0.25181177 0.51140511 -0.17304061
guide 0.27708068 0.8595342 -0.20514859 0.50084591 -0.57968581 0.50029999 -0.35730487 0.37732515 -0.22437969 0.15349448 0.40526453 -0.067426033
pass -0.12904936 0.51450479 -0.096748941 1.1118346 -0.59139192 -0.02343156 -0.15662572 -0.54191297 -0.013477575 -0.3939285 0.2922782 0.02252184
points 0.7975806 0.52062261 0.18430224 0.90469438 -0.87830907 -0.047668763 -0.49066472 -0.79647309 -0.48095378 -0.27155206 -0.0062010139 0.74285448
Users -0.28898281 0.75083816 0.14576782 0.71402353 -0.66768968 0.011971173 0.034289982 -0.14815128 -0.29664549 0.014922991 0.56189072 -0.083441883
color 0.61034548 0.92302054 0.5320667 0.79519266 -0.88476378 -0.17751572 -0.078203551 -0.56844902 -0.2032111 -0.41060293 0.23105305 0.34769467
opacity 0.073746547 0.64585459 -0.094877228 0.89366418 -0.57040423 0.30646563 -0.13115913 -0.33016717 -0.068901405 0.032111432 0.54019833 0.27456242
enhancement 0.042595521 0.67497069 -0.088625737 0.87079722 -0.59266192 0.3247731 -0.13656838 -0.35946432 -0.072613277 0.034413736 0.56242514 0.23567167
Web -0.19627298 0.78929818 -0.057395205 0.5048992 -0.42204878 0.30062076 0.2580469 -0.013143242 -0.18185796 -0.050205313 -0.19277996 -0.0011909679
technology 0.017941717 0.77594453 -0.16133612 0.262014 -0.33001828 0.570737 -0.13589111 -0.11094334 -0.087845095 0.26795873 0.11388031 0.61828911
increasing -0.15737402 0.84381014 0.18416642 0.31855103 -0.27635828 0.08645314 0.16994563 0.035334546 -0.28124461 0.022674007 0.070668846 0.16137685
sharing -0.62169182 0.71244586 0.10296239 0.43355331 -0.67021638 0.14149892 0.14230432 -0.38649437 0.060282856 0.21793173 -0.082872242 0.1674346
building -0.2645424 0.6039083 -0.01062474 0.18086389 -0.49540603 0.21306549 0.10178793 0.037107017 -0.10532417 0.15703115 -0.12684551 0.16771038
representation -0.58611703 1.2030424 -0.094374798 0.21030056 -0.52948952 0.52875268 0.17146546 0.14479972 -0.26754209 0.3585605 0.056384519 -0.077014908
established -0.18171036 1.0394952 0.12733527 0.033762198 -0.43674988 0.26411325 -0.06403704 0.084898658 -0.21585327 0.38989249 -0.014410357 0.29056901
subjective -0.027719641 1.5762389 0.052503973 -0.39412662 -0.60247374 0.5742479 0.012700775 0.54868257 -0.12717772 0.46873826 -0.02917761 0.53641313
organize -0.020385263 0.97915977 -0.24319953 -0.0057494156 -0.42382902 0.69214827 -0.13396358 0.38412312 -0.2099133 0.39977804 0.012156518 0.37384203
Several -0.1206618 1.014326 0.14774024 -0.051810365 -0.50061405 0.37101632 -0.080160066 0.052395012 -0.16931885 0.33056074 0.077547997 0.27781147
dimensions 0.082517236 1.0991277 -0.0014095606 -0.15351227 -0.74567759 0.56838179 -0.34621644 0.15178248 0.021363568 0.36881995 0.068113573 0.67262846
preserving 0.81189388 0.84905368 0.80766988 0.5322789 -0.57504672 0.47392008 0.10146724 -0.22066732 -0.12586962 -0.31788844 0.14976342 0.91414309
generates 0.7411685 0.41939026 0.51783913 0.73421705 -0.94378728 0.23890534 0.16147214 -0.17107417 -0.20276926 -0.35654145 -0.52571058 0.019479332
grouped 0.5110631 0.55166417 0.061599649 0.53020364 -0.7855835 0.67468119 -0.51146317 -0.099246174 -0.4136841 0.34520686 -0.32185355 0.2124508
coupled 0.58290988 0.64463913 0.33302894 0.66265708 -0.96640444 0.15558964 0.089616396 -0.54454941 -0.29375181 -0.15553327 -0.22394271 0.46495187
collections 0.25005424 0.90245539 0.62401134 0.055393931 -0.73146415 0.41816977 0.020209122 0.18666126 -0.67809892 -0.007869008 -0.16695075 0.38762525
increasingly 0.082468599 0.54804492 0.066452995 0.1407256 -0.48927799 0.31933874 -0.076121472 0.21375005 -0.21202275 0.040824328 -0.00071945268 0.038061116
events -0.048437234 0.74397349 0.30481938 -0.010092253 -0.67254162 0.40858987 0.011661403 0.52522624 -0.50726485 0.07745029 0.17485377 -0.13782781
Whisper 0.024746921 0.71393818 0.3024649 0.075056911 -0.7782796 0.42725381 -0.079163261 0.36177567 -0.56022215 0.081717402 0.16327348 0.031322908
tracing 0.024899859 0.78838378 0.21362163 0.046650663 -0.74886346 0.56447148 -0.079388015 0.37102336 -0.47998756 0.080248356 0.16521765 0.020976845
highlights 0.014635353 0.74160218 0.30134636 -0.032005381 -0.75828379 0.50178212 -0.060236119 0.51283836 -0.59849471 -0.02204692 0.16306649 -0.097241588
summarize -0.33757868 0.46064651 0.10924517 0.52156395 -0.87036324 0.17179669 0.011977206 -0.25029573 -0.56159645 0.11340237 -0.009556138 -0.1103715
responses -0.068389513 0.6822902 0.31928232 0.014840609 -0.76779556 0.51066804 0.029576756 0.4982897 -0.63695115 0.031098856 0.19143312 -0.11634
representing 0.63645226 0.93459684 0.71210933 0.28220582 -0.65590942 0.31856892 0.0025862271 -0.13177371 -0.18008044 -0.18479523 0.072158933 0.64493316
line 0.54493457 0.65739214 0.69501734 0.20691063 -1.1235666 0.31969929 -0.053237047 0.21662299 -0.66782284 0.0049599679 -0.11739311 0.37103778
trace 0.74275905 1.0683283 0.78909808 0.33513716 -0.56007916 0.43926227 0.062462728 -0.064256147 -0.14890595 -0.31436715 0.1973729 0.642708
identified 0.10023101 0.71146441 0.2710329 0.10924846 -0.92720664 0.80729002 -0.022399791 0.11224347 -0.41165566 -0.041163325 0.28168043 0.12936352
focused -0.10058258 0.71789539 0.048550703 0.4613294 -0.84819156 0.46437463 0.20306915 0.093549684 -0.40745348 -0.25948972 -0.067752957 -0.16147321
article 0.056175571 0.43458676 -0.25542107 0.24182038 -0.39076173 0.56194967 -0.21584216 -0.097320579 -0.062061097 -0.069114558 0.0096658934 0.29600161
cause 0.083684951 0.78220379 -0.51695198 0.62761706 -0.67466635 0.50289375 -0.59142667 -0.085355863 0.14489418 -0.19273682 0.33950821 -0.18129051
relations 0.4491162 0.64069712 -0.30070838 0.48982927 -0.3259221 0.80914921 -0.34114647 -0.36199749 -0.15234448 0.037937693 0.087249473 0.83371985
aspects 0.054012857 1.1446 0.12196597 0.049248677 -0.49270836 0.61646998 -0.068425372 0.50391418 -0.49885517 0.47541007 0.1003227 0.39024574
highlighting -0.031654615 0.79609042 -0.33167702 0.79503852 -0.5151695 0.64789063 -0.51987785 -0.23652342 0.078785226 0.67017585 0.74260473 0.032715637
benefits -0.11598161 0.80087626 -0.23489806 0.5980289 -0.89776689 0.67339909 -0.24656676 -0.31751409 0.19779077 0.08861801 0.91197938 0.19621912
Storyline -0.66548216 0.61786449 0.17954719 0.62740624 -0.96777546 0.33359021 0.09414003 -0.4109883 -0.22044665 -0.051104799 -0.043733392 -0.015535445
aim -0.12867454 0.55802578 0.016178861 0.4957121 -0.47014093 0.24743578 0.24265116 0.0083907209 -0.19350892 -0.092694886 -0.19658929 -0.080010496
story 0.36997339 0.51682919 0.38985747 0.71175957 -0.81934845 0.21150717 0.27940184 -0.070540361 -0.074061312 -0.32366917 -0.22762595 -0.17480491
discrete 0.63394833 0.62513721 0.44630727 0.94942099 -0.97497857 0.14607726 0.52537906 0.15775862 0.016895577 -0.44928959 -0.52884805 -0.58836716
continuous 0.64904308 0.57412958 0.5569914 0.94763094 -1.1137795 0.11245483 0.48382944 0.10260964 0.082983464 -0.52551603 -0.43668929 -0.57593721
initial 0.64796782 0.54890084 0.56958544 1.0478942 -1.1048976 0.038544908 0.49734497 0.01994003 0.12671749 -0.55877435 -0.40605867 -0.59836888
optimal 0.48511031 0.71707571 0.19003253 1.1236948 -1.0815228 -0.030914972 0.4304418 -0.14799473 0.1998132 -0.79365486 -0.16666779 -0.41890836
bundling 0.51627815 0.75014889 0.002042935 0.81523734 -1.0226914 0.35063341 -0.080516912 0.10199388 0.17770554 -0.28790757 0.17527005 -0.45912269
Experiments 0.40164563 1.0039345 0.26571 0.37501854 -0.82121402 0.48938337 0.31570789 0.49641263 -0.046350449 -0.33510512 0.077375405 -0.11258479
fields -0.020331956 0.41324225 0.26275629 0.45636889 -0.43150929 0.14515176 -0.076126799 -0.38349435 -0.068774633 -0.15478782 0.20184325 0.14587109
direction -0.27072039 0.61411893 0.18901461 0.40884462 -0.7144838 0.51304007 -0.083734229 -0.22522999 0.0090506505 -0.18631721 0.482622 -0.11164246
coordinates -0.41076529 0.48956966 0.13389948 0.55210936 -0.4253273 0.30017784 -0.16912226 -0.50749171 -0.25522602 0.12594083 0.3785629 -0.035681915
polar -0.37304646 0.57057172 0.15763108 0.54136336 -0.45613161 0.18322064 -0.17274311 -0.47326386 -0.26981664 0.14113167 0.32897553 -0.029993443
shape 0.40752164 1.0151658 0.74926519 0.57580209 -0.37095502 0.44230402 0.13074094 -0.23955442 0.013661686 -0.26060629 0.64921397 0.56754005
axis -0.69220173 0.76219368 -0.071991839 0.80692726 -0.60073739 0.49194267 0.088687673 -0.32799524 -0.3232567 0.013221832 0.32640886 -0.38361457
Hong -0.3449575 0.62647617 0.095033079 0.51204205 -0.86176425 0.58031911 -0.098199695 -0.45243564 0.023383578 -0.094661221 0.9151274 -0.073086448
Kong -0.28059646 0.62158078 0.093352161 0.52139306 -0.88518906 0.58842337 -0.073637784 -0.49439862 0.047830909 -0.16953671 0.91329926 -0.075053893
OpinionFlow 0.19264911 1.3037623 0.27675295 -0.25364769 -0.70628381 0.64451373 0.14403315 0.82481468 -0.42594051 0.17217985 0.12499225 0.17952532
glean -0.049943302 0.96309978 0.27762103 -0.14304878 -0.88533676 0.55251098 0.15668717 0.58444798 -0.22655484 0.20255767 -0.0056151897 0.056511231
approximate 0.17432489 1.271027 -0.33739066 -0.23878461 -0.49944285 1.2326418 -0.18601967 1.0508369 -0.62519991 0.47267321 0.087453425 0.20309694
select 0.083598845 1.1719458 -0.33450523 0.33530241 -0.74782926 0.46044055 -0.39450648 0.53711808 -0.0042490871 -0.11254412 0.29780301 -0.26314831
compare -0.76830727 0.89490306 0.29056042 0.53292525 -0.79425216 0.27340692 0.19803925 0.1461089 -0.17345423 -0.093995713 -0.053142708 -0.039603855
suggest -0.86676741 0.49556988 0.2018729 0.71560705 -0.86095959 0.21577443 0.21129665 -0.63812441 -0.13611235 -0.23981841 0.46958327 -0.2988061
source -0.28218251 0.60827541 -0.17958006 0.40496314 -0.60001957 0.60594255 -0.039991714 0.03701061 -0.27513587 0.20013618 0.17709459 -0.17660257
pairs -0.92552882 0.66529655 0.024148369 0.71366841 -0.74319708 0.34879628 0.27743235 -0.4909997 -0.30250183 -0.034980815 0.35591382 -0.45616233
taxis -0.69911253 0.64324355 0.12509976 0.73817396 -0.94353205 0.52410978 0.22081974 -0.42992076 -0.097251207 -0.40191776 0.58414692 -0.22905253
management -0.69393086 0.48024136 0.079352714 0.49433148 -0.89691931 0.57833767 0.17291822 -0.46900541 -0.15157907 -0.37217337 0.37294674 -0.16723308
recorded -0.5386194 0.30390418 -0.14385013 0.70385891 -0.58738488 0.4541246 0.071836621 -0.67190623 -0.028752398 -0.3081232 0.1031243 0.2279146
contains -0.3295761 0.32843417 -0.12448192 0.49692464 -0.68573248 0.56647867 -0.18353474 -0.44915125 -0.031358261 -0.10916784 0.0013112128 0.33048859
deal -0.34697199 0.49339986 -0.15068054 0.65544736 -0.57230473 0.4306244 -0.01269833 -0.38923156 0.087619245 -0.22974217 0.0015930777 0.25300443
Besides -0.21482185 0.72532231 -0.32386237 0.92072916 -0.58941638 0.60860211 -0.44350594 -0.31736851 0.15625867 0.33837885 0.45032477 -0.087100007
flows 0.24615176 0.84307116 0.10213461 0.2667762 -0.92586452 0.47728047 -0.012231125 0.37720239 -0.83479905 0.18303134 -0.20191123 0.1665642
How 0.27572054 0.95372456 0.29787838 -0.084320188 -0.39321682 0.35115498 0.13614881 0.55726731 -0.66203433 0.11434492 -0.16138889 0.1370198
play -0.028090974 0.95742416 0.29477796 0.029327322 -0.32911754 0.37910783 0.14745691 0.42806977 -0.5657649 0.13850985 0.085003518 0.1001504
competitiveness 0.0053259158 1.3544893 0.51980776 -0.215646 -0.70810407 0.44062188 0.18885218 1.0169405 -0.80069482 0.32213876 0.048029058 0.055700313
increase -0.32279405 0.90895075 0.50760972 0.15913974 -0.5994041 0.23614886 0.13102311 0.42974249 -0.51297277 0.1042643 0.18446262 -0.048051488
validate -0.083272733 1.0815852 0.38191569 0.055871561 -0.75085795 0.56348163 0.10571889 0.49366522 -0.33009678 -0.055594765 0.2927945 -0.070151903
Street -0.5596388 0.63452822 0.53367692 0.48824459 -1.0957547 0.38986871 0.11079133 -0.60927701 -0.50547403 -0.045608617 0.24375761 0.10425641
analytic 0.42680994 0.86225516 0.23131354 0.4557462 -0.37970215 0.41098517 0.0033417467 -0.03111667 0.26673618 -0.080655694 0.33819902 0.30347627
DICON -0.30607083 0.82501239 -0.45693973 0.46236336 -1.0011743 0.58595598 -0.47450328 -0.086557403 0.61864191 0.34201109 1.1003788 -0.33940125
icon -0.50277537 0.83848727 -0.61108452 0.455347 -0.97498536 0.724316 -0.63791955 -0.011859867 0.59541738 0.51214373 0.94448709 -0.4946509
treemap -0.2952449 1.0587716 -0.57077461 0.17706926 -0.93017584 0.97575849 -0.5072456 0.58062506 -0.31236255 0.75364798 0.61367983 -0.32594314
comparisons -0.85875386 0.65898359 -0.13371918 0.83084869 -0.96036249 0.29768503 -0.14688379 -0.25775447 0.27402878 0.054131605 0.41056186 -0.41939059
jointly 0.36284968 0.91719157 -0.044518255 0.12454276 -0.55234182 0.70373148 -0.14460556 0.57791406 -0.53665811 0.26903474 -0.057508446 0.017167954
cooperate 0.51293075 1.1211351 0.3354986 -0.17752106 -0.44365361 0.42538944 0.13425891 0.64558274 -1.0151118 0.22091426 -0.2549085 0.3005707
role 0.29101849 0.94901282 0.41646305 0.056259446 -0.37905502 0.16223958 0.22633258 0.36386064 -0.74985987 0.06891419 -0.05522573 0.21638919
test -0.017159205 0.9596042 0.2409789 0.30536208 -0.72987896 0.77811939 0.18969765 0.31987476 -0.55837828 -0.25427583 0.14351995 0.12371501
sets 0.56284791 0.94451576 0.50975615 0.11671964 -0.75594127 0.34582153 -0.076674722 -0.064897105 -0.45806393 -0.042777795 -0.20047696 0.56780273
Specifically 1.0126495 0.88852721 0.80170345 0.57849711 -0.5996083 0.46415251 -0.070992038 -0.54965222 -0.18751197 -0.31947947 0.037895255 1.2816696
encode 0.61673009 0.46817634 0.16574559 0.34791866 -0.93452436 0.51233625 -0.53305364 -0.59598804 -0.33750504 -0.0019219462 -0.32141563 1.0195981
At 0.38989738 0.50935841 0.10357349 0.62951559 -0.68057829 0.40902978 -0.17144321 -0.61847109 -0.52335089 -0.17592475 -0.4403078 0.67686856
depict -0.10561579 0.44009715 0.26535437 0.76503235 -1.1804948 0.38824698 -0.27923399 -1.0881859 -0.51490659 -0.11780199 -0.29994363 0.78812557
directed 0.63090891 0.47121936 -0.052846018 0.49114439 -1.0682372 0.50499171 -0.72113609 -0.69602895 -0.30136523 -0.24346353 -0.073158726 0.55000615
ensures 0.14631248 0.32088083 0.21949303 0.72864515 -1.0310197 0.73102403 -0.00019040052 -0.79131365 -0.39202541 -0.94939756 -0.095796913 0.12653665
derive 0.60475606 0.72102302 -0.48255596 0.46696368 -0.43116784 1.138806 -0.51606607 0.0036130813 -0.80842143 0.34568438 -0.10546666 0.73485476
demonstrates 0.60744977 0.98801243 0.65113556 0.56877404 -0.99304545 0.62336332 -0.062075708 -0.52348363 0.055687293 -0.41925094 0.64827561 0.87542719
modern -0.095491298 0.58312958 0.21973695 0.40388685 -0.3915002 0.18792751 0.11231263 -0.14259671 -0.27394038 0.049542807 0.23518966 0.22213027
employ -0.011909239 0.92492074 0.10939591 0.92252934 -0.4617964 -0.11948613 0.54781044 -0.14000735 -0.075014189 -0.11355729 -0.064464211 0.025816299
transfer 0.0070104869 0.91961747 0.12739514 0.47382554 -0.5056017 0.22119071 0.38962567 0.27739829 -0.68004149 0.16249825 -0.072225325 -0.049829833
aims 0.10150181 0.88357133 -0.04880634 0.9846524 -0.70293486 0.02399707 0.39119118 -0.35081151 -0.14402908 -0.48661438 -0.039528627 -0.079037502
exploring -0.56047159 0.50355595 0.20429012 0.85917908 -0.92171627 0.26036891 0.23443307 -0.81506741 -0.37929061 0.037518837 0.2745305 -0.049332552
modules -0.87739491 0.72260416 0.15362586 0.65868986 -0.7993685 0.31544206 0.2403082 -0.43747348 -0.25068152 0.071542941 0.22518876 -0.10735338
isotime -0.79986119 0.86666954 -0.042293884 0.69670463 -0.65156293 0.59271008 0.40168992 -0.24750909 -0.30575305 0.02406803 0.31060979 -0.42868558
manipulation -0.42494494 0.90036672 -0.2896992 0.62854612 -0.68700904 0.61904013 -0.25962615 -0.20035391 0.035051789 0.34027192 0.78241897 -0.44271067
OD -0.97989625 0.71370602 0.10340963 0.69572175 -0.91167384 0.46992174 0.22591621 -0.39376375 -0.23450673 -0.029841051 0.20482188 -0.28680298
pair -1.0107758 0.74741566 0.088349804 0.64577675 -0.90718472 0.48685601 0.218373 -0.4506695 -0.29300079 0.042998217 0.29991341 -0.28548917
origin -0.78572738 0.96088523 -0.14415327 0.83036524 -0.6869719 0.55862689 0.35155237 -0.2300875 -0.33889449 -0.027318744 0.23620456 -0.55555272
space -0.37919763 0.98112428 -0.01331307 0.94648951 -0.79836655 0.084347025 0.47377291 -0.39531451 -0.028843071 -0.0075100777 0.12728186 -0.26970312
Lastly -0.39612696 0.79389292 -0.27270758 0.72234875 -0.61305052 0.49179438 0.011502256 -0.41777974 -0.11493327 -0.070537075 -0.042323928 0.037183184
textual 0.097055726 0.77345145 -0.13385853 0.22657785 -0.54292274 0.75369126 -0.18972385 0.36406162 -0.1855824 0.16379198 0.10041215 0.074254081
unstructured -0.086245991 0.38792014 -0.097586051 0.29415724 -0.8345179 0.64611304 -0.34009299 -0.31443754 -0.044635843 0.040941674 -0.037381556 0.54820299
corpus 0.21773912 0.73566455 -0.13813296 0.18404098 -0.65563232 0.80607837 -0.39485711 0.15856004 -0.18734415 0.28015774 0.040590636 0.38259152
discover 0.086956948 0.79857171 -0.19559501 0.29794961 -0.67394209 0.43004656 -0.23414949 -0.0092628645 0.21305005 0.15440829 -0.056778312 0.41333258
rankings 0.54184353 0.84066921 0.50498444 0.38763726 -1.1481948 0.064361289 -0.11635775 -0.67873245 0.041538823 -0.2944833 0.1626505 0.54835641
Both 0.14569578 0.76498163 -0.0046388865 0.60645044 -1.146978 0.27101097 -0.18742128 -0.45652449 0.23370108 0.077708475 -0.36105508 0.21845143
items -0.32926604 0.64354485 0.54630154 0.64847291 -0.98721427 0.017104041 -0.053822163 -0.62109154 -0.02581385 -0.29843205 -0.2497302 0.26937053
segmentation 0.22819388 0.78352946 0.49820751 0.64358103 -1.1650887 -0.026665194 -0.14158146 -0.84877974 0.11358761 -0.26623017 0.35801587 0.31933105
traditional 0.42855379 1.0275241 0.20067452 0.74996209 -0.70510715 0.40742114 0.26310396 -0.33458036 -0.21987599 -0.60510594 -0.020516776 0.53987712
address 0.095413834 0.81288779 -0.55770463 0.31536135 -0.46298444 0.82014579 -0.23347358 0.3953158 -0.041735992 0.28603575 -0.1152462 0.26368457
modify 0.18945305 1.267512 -0.44607422 -0.058761686 -0.60190964 1.2701583 -0.40275672 0.87187916 -0.27873036 0.49382687 0.47509187 0.20308436
fitness 0.10387856 1.1911821 -0.90993738 0.26280457 -0.34668452 1.765303 -0.339719 0.85209394 -0.87564421 0.69087535 0.12551726 0.27688411
smoothness 0.040074613 1.1474921 -0.96715659 0.25508896 -0.39884186 1.7726785 -0.44612232 0.90072662 -0.69962567 0.78044474 0.20095289 0.26224598
adjacent 0.019167611 1.2516466 -0.87865514 0.23723634 -0.40082991 1.7789034 -0.38597795 0.93288058 -0.73539674 0.72795403 0.17646654 0.2323323
preserve 0.13573793 0.96201009 -0.61467415 0.50871164 -0.73205459 0.90741158 -0.58603895 0.51949638 -0.1258249 0.034955565 0.35596383 -0.2556268
As 0.74332416 1.0656804 0.38750932 0.28283963 -0.39370099 0.8619771 -0.20570068 0.28137112 -0.09479256 0.0021685106 0.28781885 0.67572576
quickly 0.12129152 1.0728798 -0.38515061 0.06042501 -0.82989687 1.2409613 -0.30737689 0.80384731 -0.64720494 0.5276069 0.26898938 -0.043300498
sources 0.25395778 0.73238069 -0.33091885 0.15414619 -0.63422936 0.92159098 -0.39817244 0.49842447 -0.32011339 0.23580061 -0.006670217 -0.070360139
blogs 0.28245187 0.6776703 -0.37561253 0.18961304 -0.5714556 0.89949268 -0.35982999 0.42221403 -0.25133389 0.20254508 0.03545934 -0.094826475
distinctive 0.27737337 0.8699978 -0.25586525 0.12929292 -0.60845113 0.95333612 -0.28308585 0.60165709 -0.26405206 0.38508201 0.045124799 -0.037733503
These 0.080015428 0.88991326 -0.14539847 0.38121474 -0.38239792 0.5800392 0.064374685 0.32695493 -0.24023215 0.065812305 0.0050871139 -0.092597134
Qualitative 0.11379742 1.3965584 -0.044540901 -0.049666833 -0.93342483 0.91951501 -0.29069576 0.36332202 0.2474785 0.33357641 0.91752243 0.21741784
promise 0.120929 1.3153199 -0.063238449 0.11127412 -1.089227 0.89429253 -0.34433982 0.31308973 0.23033135 0.17510216 1.0665417 0.17601755
image 0.1432793 0.34127277 -0.030995561 0.5022192 -0.87679851 0.10883204 -0.30280587 -0.40154058 0.097904161 -0.38193125 0.042017553 -0.098176442
introduces 0.21002671 0.81312412 -0.019179458 0.76012701 -0.84089375 0.051379543 0.20495836 -0.36716753 -0.14910905 -0.55685699 -0.11590838 -0.013768512
determine 0.1214723 0.77355522 -0.13506459 0.95684874 -0.89199215 0.06215464 0.24383591 -0.30155483 0.01873567 -0.68552566 0.038371298 -0.16577157
An 0.051113941 0.82504809 0.015554146 1.1136041 -0.96066213 -0.16955791 0.4477548 -0.49430138 0.21737011 -0.39741918 0.040163513 -0.21093328
introduced 0.069073804 0.73006237 -0.4042213 1.1219596 -1.12368 0.08562772 -0.27100578 -0.25372916 0.33316296 -0.64456457 0.24364509 -0.61568218
Nowadays -0.33095685 0.33832309 0.066033989 0.42885143 -0.49564359 0.29042289 0.032914016 -0.2265687 -0.1188783 -0.00084523397 0.14552446 0.062793992
situations -0.55784047 0.6177451 0.20660686 0.5116815 -0.84692597 0.60555947 0.17254621 -0.41387767 -0.2278371 -0.18602648 0.30379552 0.14106192
monitor -0.67446697 0.65917367 0.0084936786 0.47976795 -0.70302576 0.66642642 0.13709027 -0.14263502 -0.36074039 0.13010176 0.44427559 0.084497213
abnormal -0.58202207 0.76081264 0.025402926 0.69798672 -1.0108855 0.84815717 0.18145552 -0.24290651 -0.13734327 -0.20968682 0.37919044 -0.0015711475
presented 0.39585999 1.0110466 0.83079946 0.69702309 -0.59643286 0.58138543 0.363282 -0.49371633 -0.0099904127 -0.57420588 0.33995113 0.88501704
segments -0.1509475 0.78063112 -0.0066314237 0.644036 -0.89009285 0.64585823 0.24244869 -0.29925269 -0.18904442 -0.49292901 0.18378061 -0.0073075378
Furthermore -0.5151 0.39946201 0.13591392 0.77612436 -0.93728763 0.38937113 0.14530516 -0.65279442 -0.26476374 -0.17111823 0.072079159 0.096161358
life -0.99853808 0.54173988 0.18963823 0.82325411 -0.8613078 0.30153435 0.1609183 -0.20875838 -0.18774275 -0.34584397 0.10836878 -0.26062104
capable -0.010807414 0.54850441 0.18922162 0.56600916 -0.57074112 0.44931424 0.059840698 -0.20799567 0.054745466 -0.33570865 0.23529461 0.020648746
detecting -1.0143445 0.67861038 0.10293537 1.0127434 -0.96467859 0.39215523 0.12671788 -0.41915604 -0.047367491 -0.34260264 0.096569464 -0.23519155
microblogs 0.13680936 0.93862176 -0.20540971 0.31195906 -0.58282518 0.27586633 -0.023441914 0.27085978 0.26468346 0.18190055 -0.093850181 0.13860871
retrieve 0.26910776 1.0813745 -0.29692781 0.36588296 -0.50672007 0.34277162 -0.12662262 0.27269751 0.37300557 0.17623235 -0.1209712 0.22603145
posts 0.11453942 0.95532566 -0.29497886 0.61440831 -0.92666465 0.38984567 0.073046193 0.10123286 0.38891914 0.11658624 -0.15489827 -0.090923853
rank 0.58446366 1.3679693 -0.1969129 0.092122726 -0.40757483 0.72311527 -0.24046908 0.22130615 0.19641384 0.49778518 0.093605727 0.61220086
nodes 0.42967534 1.2322464 -0.58330244 0.22265802 -0.28280157 1.1759866 -0.3632465 0.54198349 -0.41186452 0.64988667 -0.06570521 0.5560891
opportunities -0.31199938 0.27816901 -0.008684719 0.47120595 -0.73273587 0.33652627 0.037376273 -0.20788866 -0.0080758138 0.081376947 0.034261599 -0.091775388
switching -0.064294323 0.72836298 0.17286882 0.28902313 -1.1683004 0.65006304 -0.10536186 -0.11464582 0.025472464 0.048514538 0.29465523 0.13772805
Two -0.086127415 0.79502523 -0.23092088 0.58747369 -1.2000403 0.52515811 -0.35214806 -0.10971095 0.13307175 -0.16871212 0.60379112 -0.41579303
volumes -0.61048728 0.41972086 0.04930225 0.69261873 -0.65036362 0.018692572 0.12856828 -0.16394268 -0.18328249 0.011332748 -0.022150788 -0.1876284
requires -0.54442853 0.37565166 -0.51187551 0.98970538 -1.0078784 0.13970827 -0.11535895 -0.38784149 -0.092212833 -0.21875715 -0.035052791 -0.53476274
survey -0.67365742 0.48423734 -0.17679729 0.86091661 -0.9836874 0.16117945 -0.034715105 -0.59959656 -0.22262606 0.11739796 -0.0028174073 0.011819215
discuss -0.57301253 0.39391887 -0.073787175 0.88206345 -1.0422866 0.16889326 0.014591078 -0.86394405 -0.32661623 0.14636232 -0.032357913 0.24546498
categorized -0.12075043 0.54949456 -0.1470207 0.65003854 -0.82901597 0.52923578 -0.32725331 -0.29552194 -0.2740705 0.53176647 -0.040429078 -0.021414131
future -0.52294236 0.51154995 -0.24040817 0.67670035 -0.86629242 0.43643239 -0.15299971 -0.54732043 -0.061035596 0.022445774 -0.046789356 0.29086214
potential -0.42031837 0.81393647 -0.42846531 0.84009683 -0.81487775 0.47404447 -0.5722506 -0.33916166 0.16017713 0.46819219 0.67070198 -0.20161976
directions -1.0832902 0.60095906 0.053376585 0.99164742 -1.052283 0.19285096 0.10184758 -0.55025834 0.0018868149 -0.12934485 -0.071774989 -0.087837987
Massive -0.21428688 0.62807655 -0.19810873 0.74659848 -0.36227772 0.25520763 0.40099552 -0.21611373 -0.0068419068 -0.20542327 -0.30150318 -0.15792583
access -0.28481266 0.7160396 -0.23517245 0.71570224 -0.35744068 0.26105335 0.41513467 -0.19111618 -0.013041976 -0.17161788 -0.25888377 -0.14192948
participation -0.2908349 0.69331253 -0.2060059 0.7202661 -0.33880946 0.26493424 0.38330036 -0.12511651 -0.053536464 -0.13330938 -0.28241482 -0.14197861
platforms -0.1819538 0.8489204 -0.14711414 0.79734063 -0.74454379 0.51528007 0.3081145 -0.10850702 -0.15659069 -0.39310861 0.030429466 -0.19097005
amounts -0.10165159 0.89112669 -0.22358653 0.56897283 -0.72900885 0.63862115 0.11952081 0.28997609 -0.35586217 0.03743805 0.13902393 -0.23001385
conduct -0.1343451 0.8502143 -0.017491084 0.72583598 -0.83185863 0.50160635 0.13127686 -0.15461831 -0.044215303 -0.43562233 0.34701982 -0.19028245
PeakVizor 0.036245991 0.93185472 -0.057356723 0.78590137 -0.99191141 0.55491847 0.30747011 -0.054924149 -0.092407353 -0.51479965 0.24641098 -0.25284612
instructors -0.15942389 0.75907612 -0.43724692 0.86117959 -1.0837698 0.43915835 0.21662806 -0.21998504 0.22683366 -0.10449704 -0.14098594 -0.33982536
valuable -0.068750143 0.70921403 0.089006379 0.63819534 -0.71882659 0.39651349 0.22537848 -0.35537282 0.019639613 -0.081860483 0.34923702 0.063848108
detected 0.041067552 0.96541429 -0.29458123 0.70277351 -0.64134634 0.55244339 -0.31028384 -0.057312977 0.10954023 0.21480398 0.66978657 -0.50812531
demonstrated 0.22496024 0.82740569 0.15745039 0.6147489 -1.2337706 0.26808989 0.25738764 -0.37064186 0.13201031 -0.43598408 0.5137881 -0.067161933
Stacked 0.41488981 0.50504148 0.45947143 0.50411218 -0.36266902 0.062740281 0.036121711 -0.45238271 0.095591128 -0.26550144 0.10295569 0.38098001
overly 0.51037806 0.5236581 0.51307446 0.64205843 -0.42833635 0.44456702 0.13413073 -0.4274742 0.10090377 -0.47138962 0.19139542 0.34040305
splitting 0.24270603 1.0007943 0.063777842 0.61451662 -0.48404214 0.53594214 -0.35561365 -0.05182733 0.27756923 0.27600867 0.9505133 0.041539714
pieces 0.75290853 1.2054585 0.75744468 0.64615691 -0.3034136 0.42235747 0.26690939 0.30365124 0.196798 -0.22858606 0.54002005 0.64747322
encoding 0.28253391 0.98693621 0.37951496 0.47301275 -0.67626995 0.61318445 0.18256266 0.1982663 0.20438369 -0.45093283 0.72053516 0.15957402
formation 0.38527265 1.0659307 0.16600703 0.73023093 -0.63226604 0.71084887 0.43643537 0.1409367 -0.037706252 -0.6119777 0.15470298 0.40943718
exist -1.0643339 0.59766358 0.11155418 0.99400318 -0.92636341 0.0635731 0.15157598 -0.53954762 -0.11460082 0.12191619 0.050306085 -0.16608313
daily -0.8247714 0.51317567 0.26016906 0.68096918 -0.85404402 0.010673554 0.12924272 -0.3599779 -0.27086863 -0.060569875 -0.12013548 -0.20149878
migration -1.2529038 0.57021159 0.27039474 0.97292674 -1.0275527 -0.0011924945 0.20141725 -0.51260555 -0.090793535 -0.31740525 -0.10657583 -0.22719653
Quantitative -0.57749867 0.93838221 -0.0017890029 0.49392888 -0.94667101 0.66912687 0.06861376 0.10108792 -0.45428115 0.12372626 0.29182643 -0.1254393
analyses -0.28494406 0.83326155 0.18536876 0.76580226 -0.71015972 -0.0024447618 0.32197186 -0.1647906 -0.145588 -0.10589602 -0.14915615 0.021395957
selected -0.026628081 0.70288098 -0.62566286 0.43629578 -0.47245142 1.372068 -0.089253612 0.4024677 -0.70555091 0.016417282 -0.15902443 -0.013859545
broadened -0.46061826 0.55165172 -0.1347862 0.6298812 -0.99960947 1.0520492 0.22697647 -0.21688452 -0.038450163 -0.9542014 0.24257758 -0.56205356
caused -0.075301975 0.69744939 -0.32753065 0.7165246 -1.0095193 0.82169336 -0.1197011 -0.12163723 0.051596839 -0.55278105 0.43331462 -0.64770401
metro -0.71512026 0.49364868 0.024630673 0.79689574 -1.052902 0.57116503 0.14280273 -0.64662552 0.062386148 -0.19219577 0.26056719 -0.15966225
maps -0.3209683 0.74610239 -0.2618219 0.28981787 -0.90224409 0.97799814 -0.1238755 0.34781504 -0.36230874 -0.076088421 0.43884838 -0.25412253
applicability -0.49085569 0.47706521 0.066314913 0.49035826 -1.0691603 0.844392 0.0090761278 -0.49763602 -0.010118373 -0.42653307 0.77387887 -0.24984553
choices -0.12342905 0.7855022 0.052201342 0.42704412 -0.87917989 0.73753047 -0.078141786 -0.028046424 0.22514457 -0.45470411 0.78570497 -0.12577392
billboard 0.4316245 0.8510865 0.15712005 0.75566733 -0.91148138 -0.10067382 0.26374301 -0.37948823 0.23196259 -0.22959125 0.1527878 0.11970057
advertising 0.2372625 0.89322251 -0.002557432 0.93795276 -0.77416247 -0.12803456 0.43123791 -0.23378505 0.14775176 -0.10063291 -0.10087912 0.04123085
manner 0.21431817 0.83965594 0.24690294 0.83332413 -1.094597 -0.15626222 0.32211888 -0.56023288 0.21078184 -0.10586824 0.20704259 0.016798798
streams 0.31835875 0.84621304 -0.1336796 0.69982433 -0.40646276 0.58724236 0.12332676 0.13237572 -0.35694385 -0.055153366 -0.35288221 0.52406287
incoming 0.27841517 0.94949204 -0.75609636 0.4313792 -0.30479759 1.4309392 -0.33823305 0.50354534 -0.88175398 0.61755615 -0.29220438 0.53892648
align 0.30911779 0.90400761 -0.52799648 0.46399117 -0.58680153 0.87330055 -0.64045858 0.26407361 -0.2559042 0.60314536 0.38602832 0.11227366
learn 0.25111327 0.87580168 -0.65753382 0.53687936 -0.51710427 0.98877543 -0.65858364 0.23535179 -0.2621392 0.67651254 0.4687849 0.037653804
streaming 0.29547492 0.98681217 -0.75717109 0.31965774 -0.41758758 1.4678972 -0.38646439 0.5736267 -0.75735915 0.67640662 -0.07152281 0.4505958
Bayesian 0.42205581 1.0436364 -0.43100637 0.20186533 -0.62267554 1.0548277 -0.3311148 0.6997686 -1.187011 0.62650895 -0.33316693 0.42921659
favorable 0.1225255 1.1025227 -0.33917916 0.55924416 -1.0448968 1.1358066 -0.42926398 0.20618536 -0.048091542 0.28272301 0.60675901 0.021307599
convolutional -0.30426419 0.40593198 -0.46032089 0.89018404 -1.0483892 0.15218109 -0.46014217 -0.46170041 0.12571365 -0.38004261 0.10960008 -0.51891345
neural -0.27405846 0.39607495 -0.48073238 0.8712815 -1.0512555 0.13967136 -0.37748435 -0.42162645 0.18140046 -0.370976 0.15001701 -0.54553044
networks -0.3107644 0.36781758 -0.50830507 0.92981297 -1.0713431 0.15537529 -0.41836926 -0.36465731 0.16986969 -0.34330997 0.10606804 -0.60359681
typically 0.27172732 0.37967452 0.3134709 0.34801683 -0.97912443 0.1248742 -0.31759512 -0.24711712 -0.26175499 -0.099530436 -0.084401377 0.43240586
diagnosing -0.1716754 0.5716151 -0.56854296 0.77505797 -1.139641 0.31772763 -0.70240945 -0.27367809 0.2908873 -0.34271261 0.24325991 -0.51345795
matrix -0.18820368 0.64152116 -0.27498278 0.70918542 -1.1188786 0.41960835 -0.38830689 -0.52204049 0.227101 0.17338477 0.3955256 -0.082309052
neurons 0.094947934 0.93557352 -0.5106861 0.88276953 -1.0656618 0.46885869 -0.58621693 -0.013085958 0.28107446 -0.18938322 0.73407757 -0.65967572
current -0.38484654 0.2877562 0.34460574 0.61599362 -1.0351957 0.19669865 0.072562195 -0.7594344 -0.24319702 0.099019147 0.1428456 0.31665993
With 0.31761169 0.48768544 0.64456004 0.23070723 -0.89910376 0.14963666 -0.059813019 -0.094298743 -0.43216762 0.13424723 -0.050006498 0.55490601
defined 0.53126472 0.78024113 0.61519402 -0.029871296 -1.1264949 0.16455483 -0.02859612 0.42014071 -1.0281327 0.21866435 -0.33147046 0.39009544
plot 0.022807451 0.30184382 0.72707641 0.54881257 -1.2197533 0.25280577 -0.084682278 -0.67222947 -0.59436196 -0.12601426 0.13264659 0.3227413
leverage 0.086336546 0.27509481 0.66116136 0.65879309 -1.3290805 0.11105239 -0.13823317 -0.71286362 -0.54644156 0.14697626 0.044383816 0.38802272
facilitating 0.10165545 1.0821165 0.50138527 0.57488632 -1.1830571 0.73917031 0.073698953 -0.34897828 0.28554147 -0.37469739 0.99630642 0.28697962
lead 0.27740398 1.1211278 -0.059268858 -0.14634196 -1.0096599 0.48374587 -0.11594656 0.76947993 -1.0266534 0.48594254 -0.20223111 0.1131816
lag 0.17753229 1.1116934 -0.043354135 -0.087830745 -0.95330739 0.50478697 -0.12991779 0.76718438 -1.0725869 0.46695974 -0.1917441 0.067156963
bubble 0.057386085 1.160784 -0.38376153 0.014230848 -0.93407559 1.0072267 -0.28627723 0.86180425 -0.98810685 0.58187282 0.056444444 -0.047004748
prior -0.13229086 0.68439823 -0.47998509 0.62367225 -0.61447859 0.5469451 -0.64761066 -0.35706791 0.212879 0.31466302 0.59274888 -0.070232421
years -0.52138889 0.71258318 -0.15986922 1.0454105 -0.60688376 0.24759522 0.4066284 -0.69516826 0.24586089 0.13073485 -0.058576703 -0.019877108
heterogeneous -0.58158934 0.65479577 -0.21284539 0.99578649 -1.3221744 0.3480081 0.12909077 -0.53325498 0.37982938 0.21685775 -0.092448652 -0.21953052
areas -0.51780856 0.4149031 0.26775059 0.77761966 -1.2745892 0.28854316 -0.098041743 -1.0886717 -0.080532789 -0.20060696 0.65782702 0.05866567
relation 0.1948123 0.57492161 -0.18902405 0.4753564 -0.75539804 0.68943459 -0.42945743 0.020962205 -0.080949664 0.37012941 -0.25534007 -0.2707288
persons 0.19424114 0.61822051 -0.092839845 0.486837 -0.81999648 0.64013565 -0.47943628 0.11319725 -0.076661982 0.40073505 -0.27596074 -0.31922716
connectivity 0.22147132 0.78343463 -0.19043307 0.64671254 -0.81619668 0.77638865 -0.5586319 0.22947417 -0.13824083 0.69228637 -0.189988 -0.35942838
outliers -0.016130544 0.93381906 -0.46076125 0.92833781 -0.80456012 0.40754655 -0.82510048 -0.13837755 0.33400583 0.077966169 0.81488258 -0.53109276
individuals -0.090658434 0.63695914 0.093888216 0.61769688 -0.59288555 0.22719091 0.26631555 -0.23525482 -0.22268647 -0.20253448 -0.18239352 0.15148835
forums 0.19805011 1.0428504 -0.12635891 0.85706037 -0.48792422 0.66817558 0.56642354 -0.11246073 -0.27362874 -0.78042608 -0.18034454 0.43440041
students 0.18521954 1.0360001 -0.08398623 0.87772554 -0.51133496 0.6499542 0.59211612 -0.090969756 -0.22069401 -0.74830437 -0.14089458 0.46844512
NetworkSeer 0.3059482 1.0746218 -0.054280918 0.77861345 -0.61151469 0.6687997 0.61276388 0.020263728 -0.26504508 -0.77444428 -0.16071199 0.35712367
forum 0.16079144 0.9404254 -0.15585518 0.8137995 -1.0771168 0.47603291 0.40179697 -0.057493247 0.098098323 -0.41023704 -0.074525729 -0.084346242
crucial -0.35347679 0.79745632 -0.61062396 1.1899363 -0.99743968 0.34618649 0.32024151 -0.44193381 0.44331533 0.029335175 -0.40803477 -0.40631956
logs -0.29245925 0.75893658 -0.47222194 1.1108903 -1.2172877 0.31203091 0.22350359 -0.3099266 0.57350087 0.0039126645 -0.19005446 -0.46626809
predictive -0.39070693 0.61029154 -0.60228229 1.0701798 -1.0869179 0.37823018 0.28874305 -0.34679025 0.60095376 0.13561125 -0.29739803 -0.36343575
reasons -0.35694644 0.68569225 -0.67120832 1.0257447 -1.1867262 0.44559932 0.19099595 -0.22600818 0.60618728 0.15754414 -0.23722681 -0.41908666
predicted -0.30818516 0.75801831 -0.53546458 0.94444299 -1.1982248 0.42505011 0.26551071 -0.1189013 0.5015415 -0.0057686246 -0.14973533 -0.44306761
improve -0.31486851 0.74468446 -0.67169046 0.98460597 -1.3185586 0.48536903 0.10462054 -0.24047562 0.55666775 0.27258083 -0.22408807 -0.42070547
DropoutSeer -0.21098793 0.83556074 -0.33655679 0.76076663 -1.3189797 0.57160133 0.12495878 -0.10106745 0.38185978 0.0033665106 0.085107893 -0.33840775
assignment -0.0689651 0.85937798 -0.53059578 0.93750834 -1.2756106 0.33704883 -0.34950599 -0.015566146 0.35956341 -0.21110106 0.35563791 -0.72146606
quantitative -0.68854743 0.23128149 0.3423388 0.85505247 -1.2895486 0.28694677 -0.0047498154 -1.2404113 -0.50044018 0.0042031454 0.39568767 0.11254669
measurements -0.72562331 0.23030168 0.3948831 0.8917886 -1.2710578 0.26046291 0.016385168 -1.2294624 -0.44913208 0.004711003 0.43745804 0.11046189
Explorer -0.6662128 0.19712631 0.36017787 0.87572527 -1.2734107 0.36795396 -0.0011357847 -1.3126123 -0.49700648 -0.21852414 0.51499885 0.11255001
Understanding 0.047146115 0.35297161 0.048083242 0.19908711 -0.34164551 0.31379095 -0.058514107 -0.063203841 -0.071796492 0.0096762422 0.02063432 0.12558235
evolve 0.1081313 0.3804267 0.014285945 0.20894238 -0.34330752 0.28789836 -0.0087532867 -0.023465293 -0.12230116 -0.028154016 -0.0074935653 0.22317313
devoted 0.1427249 0.45353881 -0.0033863354 0.19680044 -0.39953762 0.36329421 8.2047336e-05 -0.037649307 -0.11026108 -0.025194569 0.01549757 0.23330374
seamless 0.14863843 0.55294198 0.0069377604 0.17817363 -0.48264322 0.48447403 -0.050890107 -0.0015892341 -0.14604564 0.089382686 -0.038406957 0.37315729
integration 0.14761712 0.53786945 0.022132669 0.15597215 -0.43698883 0.51473272 -0.073750719 -0.041859478 -0.15732293 0.064660072 -0.013780789 0.32717162
emerge 0.17002162 0.60886818 0.084847018 0.15265927 -0.51134878 0.50544846 -0.031312648 -0.013616882 -0.18837585 0.11445709 -0.04453725 0.39128804
critical 0.13201058 0.65058059 0.084192015 0.15160042 -0.52215451 0.57516789 -0.16601005 0.010473367 -0.25683272 0.12055793 0.046935163 0.45208851
keyword 0.15371665 0.5935936 0.096504159 0.11532288 -0.56216991 0.58108592 -0.12366529 0.017547183 -0.25445947 0.13065505 0.069326974 0.47347471
Then 0.15904449 0.66475976 0.072067805 0.06724342 -0.5890137 0.60957301 -0.16457784 0.017180342 -0.25067648 0.15237626 0.085303113 0.43748829
coherent 0.14660968 0.65776116 0.12615412 0.074938305 -0.54470837 0.61558807 -0.16963632 0.046877988 -0.22985692 0.14098383 0.072617956 0.49506047
Through 0.10160936 0.6325171 0.099588506 0.10663482 -0.57795841 0.5744729 -0.12126958 0.049539559 -0.21704167 0.12018197 0.13041216 0.35977307
communicate 0.13156684 0.67665005 0.085131295 0.065917224 -0.61948293 0.62319875 -0.10730439 0.087134339 -0.22777194 0.1139712 0.18229781 0.37911248
varying 0.072565809 0.6022988 0.03296943 0.22085276 -0.66660064 0.54559827 0.02291779 -0.0060418253 -0.13276635 -0.082049206 0.19315717 0.25223294
Graphs 0.084437147 0.38393024 0.075499229 0.30654159 -0.33334142 0.063954093 -0.0024496987 -0.075197607 -0.1000599 -0.0054099024 0.10116932 0.11039972
excessive 0.024672026 0.46339408 0.071775824 0.31712082 -0.3991805 0.14386256 0.0013091657 -0.064780734 -0.10047629 0.034999408 0.10374469 0.064614221
cluttered 0.094686031 0.57798368 0.069465652 0.4686788 -0.4804821 0.067443095 -0.066283174 -0.093347102 -0.11022097 -0.033592872 0.18660407 0.035509631
group 0.13610242 0.62187928 0.089354679 0.64131981 -0.63749206 -0.029798364 -0.13373944 -0.19225959 -0.083096005 -0.050187308 0.29405951 0.058144242
forcing 0.17757751 0.72982138 0.019717148 0.90001345 -0.67428118 -0.17311722 -0.19605052 -0.2669754 -0.079121858 -0.25288069 0.38207316 -0.13287275
manually 0.074981399 0.73707688 0.064188421 0.9392215 -0.66202873 -0.10357262 -0.13089631 -0.20614181 -0.14346601 -0.2988424 0.50362545 -0.11348289
interact 0.070266768 0.75411397 0.10830749 0.82571244 -0.72499907 -0.071698397 -0.10750327 -0.19825394 -0.095271811 -0.21837498 0.47832853 -0.12765865
Compared 0.065536492 0.63049072 0.080371097 0.76241916 -0.62673223 0.036336664 0.040853236 -0.18833381 -0.077540845 -0.19882205 0.44867241 -0.051325012
flexible 0.08771275 0.64372981 0.11428577 0.66115773 -0.59187615 0.10848586 -0.012959532 -0.11193664 -0.080926798 -0.1315418 0.41639292 -0.059095528
experiments 0.092495039 0.64359504 0.10627183 0.70471603 -0.60810888 0.080558442 0.045295689 -0.18199232 -0.059425712 -0.20618242 0.422023 -0.081141457
resulted -0.06980221 0.4942719 0.082006611 0.096706986 -0.22887509 0.11442049 0.035174575 0.030503986 -0.056218654 0.085840672 -0.011377885 0.18231858
customers -0.038972739 0.56264281 0.065022156 0.036462355 -0.28003561 0.16550972 0.10972044 0.076637536 -0.015889546 0.050890394 -0.014502268 0.21324877
Effective -0.097445302 0.65961504 0.079751059 0.013365373 -0.30241978 0.13803242 0.080153733 0.15642269 -0.080946013 0.062654339 -0.043043211 0.2433919
impact -0.066416234 0.76102108 0.050811425 -0.045231804 -0.28926179 0.19580607 0.052610908 0.23067419 -0.048783492 0.13760801 -0.063357681 0.18313794
successful -0.033758555 0.77316487 0.015296057 -0.037657157 -0.30829903 0.22678724 0.045004994 0.1802163 -0.032524168 0.16034965 -0.041386478 0.25805485
reviews -0.038139749 0.87196624 -0.037109099 -0.038649715 -0.37285545 0.31327283 0.014926372 0.25479209 -0.13521531 0.26643503 -0.085176319 0.36513662
